// #### Created By: http://www.cufonfonts.com ####
/*!
 * The following copyright notice may not be removed under any circumstances.
 * 
 * Copyright:
 * Generated in 2010 by FontLab Studio. Copyright info pending.
 * 
 * Full name:
 * TitilliumText22L Thin
 * 
 * Manufacturer:
 * Campivisivi
 * 
 * Designer:
 * Campivisivi
 * 
 * License information:
 * http://scripts.sil.org/OFL
 */
Cufon.registerFont({"w":530,"face":{"font-family":"TitilliumText22L-Thin","font-weight":100,"font-stretch":"normal","units-per-em":"1000","panose-1":"0 0 0 0 0 0 0 0 0 0","ascent":"750","descent":"-250","x-height":"9","bbox":"-49 -1062 925 267","underline-thickness":"50","underline-position":"-50","unicode-range":"U+0020-U+20AC"},"glyphs":{" ":{"w":235},"C":{"d":"489,-45r3,34v0,0,-106,20,-185,20v-206,0,-249,-134,-249,-356v0,-218,36,-362,249,-362v95,0,185,19,185,19r-3,35v0,0,-101,-20,-182,-20v-188,0,-211,129,-211,328v0,200,27,322,211,322v71,0,182,-20,182,-20","w":537},"c":{"d":"265,-509v38,0,120,10,120,10r-2,32v0,0,-80,-10,-118,-10v-128,0,-168,58,-168,216v0,172,26,238,168,238v38,0,120,-9,120,-9r2,32v0,0,-84,9,-122,9v-167,0,-205,-69,-205,-270v0,-185,56,-248,205,-248","w":437},"d":{"d":"437,-700r0,700r-35,0r0,-42v0,0,-82,51,-173,51v-62,0,-169,-9,-169,-252v0,-172,46,-266,210,-266v47,0,107,8,132,12r0,-203r35,0xm229,-23v86,0,173,-52,173,-52r0,-390v-26,-3,-93,-12,-132,-12v-142,0,-175,85,-175,237v0,199,78,217,134,217","w":538},"e":{"d":"249,-23v70,0,182,-9,182,-9r2,32v0,0,-112,9,-185,9v-149,-1,-188,-96,-188,-259v0,-198,88,-259,202,-259v133,0,198,91,190,273r-355,0v0,138,36,213,152,213xm97,-268r318,0v0,-153,-49,-209,-153,-209v-100,0,-165,57,-165,209","w":507},"f":{"d":"139,-468r0,468r-35,0r0,-468r-69,0r0,-32r69,0r0,-61v0,-144,36,-178,127,-178v35,0,92,3,92,3r0,31v0,0,-64,-2,-92,-2v-68,0,-92,27,-92,147r0,60r162,0r0,32r-162,0","w":328},"g":{"d":"253,239v-166,0,-198,-41,-198,-159v0,-66,31,-89,85,-128v-16,-10,-22,-34,-22,-65v0,-15,30,-78,30,-78v-46,-15,-86,-55,-86,-152v0,-119,64,-167,171,-167v54,0,106,13,106,13r140,-3r0,35r-108,0v25,23,40,53,40,122v0,146,-94,176,-236,160v0,0,-23,57,-23,70v0,49,6,54,137,54v124,0,177,20,177,144v0,108,-64,154,-213,154xm287,-27v-41,0,-121,-3,-121,-3v-58,40,-75,61,-75,109v0,95,25,128,163,128v124,0,175,-36,175,-122v0,-101,-41,-112,-142,-112xm229,-211v104,0,145,-32,145,-132v0,-113,-37,-135,-142,-135v-88,0,-134,32,-134,135v0,90,30,132,131,132","w":504},"h":{"d":"136,0r-35,0r0,-750r35,0r0,280v0,0,88,-39,174,-39v136,0,164,55,164,249r0,260r-35,0r0,-258v0,-170,-18,-219,-129,-219v-89,0,-174,40,-174,40r0,437","w":567},"i":{"d":"90,0r0,-500r35,0r0,500r-35,0xm90,-645r0,-55r35,0r0,55r-35,0","w":215},"j":{"d":"108,-6r0,-494r35,0r0,495v0,112,-30,157,-159,223r-14,-31v114,-62,138,-95,138,-193xm108,-645r0,-55r35,0r0,55r-35,0","w":233},"k":{"d":"136,0r-35,0r0,-730r35,0r0,438r94,0r182,-208r41,0r-192,226r192,274r-41,0r-182,-257r-94,0r0,257","w":483},"l":{"d":"95,0r0,-730r35,0r0,730r-35,0","w":225},"m":{"d":"300,-509v61,0,106,12,130,48v14,-6,108,-48,188,-48v136,0,164,55,164,249r0,260r-35,0r0,-258v0,-170,-18,-219,-129,-219v-87,0,-168,46,-172,49v31,99,14,293,18,428r-35,0r0,-258v0,-170,-18,-219,-129,-219v-89,0,-164,50,-164,50r0,427r-35,0r0,-500r35,0r0,40v0,0,78,-49,164,-49","w":875},"A":{"d":"35,0r215,-700r106,0r213,698r-36,0r-67,-213r-328,0r-67,215r-36,0xm275,-666r-127,417r308,0r-127,-417r-54,0","w":604},"p":{"d":"101,230r0,-730r35,0r0,42v0,0,82,-51,173,-51v122,0,171,81,171,252v0,185,-57,266,-212,266v-54,0,-109,-9,-132,-14r0,235r-35,0xm309,-477v-86,0,-173,53,-173,53r0,387v22,4,78,14,132,14v129,0,175,-65,175,-237v0,-159,-48,-217,-134,-217","w":540},"q":{"d":"240,9v-136,0,-180,-86,-180,-248v0,-187,52,-270,228,-270v48,0,149,9,149,9r0,730r-35,0r0,-259v0,0,-73,38,-162,38xm289,-477v-157,0,-192,77,-192,236v0,140,32,218,143,218v89,0,162,-40,162,-40r0,-408v0,0,-78,-6,-113,-6","w":538},"r":{"d":"101,0r0,-500r35,0r0,78v0,0,88,-67,198,-88r0,34v-98,19,-198,87,-198,87r0,389r-35,0","w":354},"s":{"d":"403,-494r-2,33v0,0,-102,-16,-170,-16v-64,0,-134,19,-134,100v0,62,27,81,142,99v131,21,182,40,182,134v0,117,-72,153,-190,153v-57,0,-165,-16,-165,-16r4,-33v0,0,108,17,159,17v94,0,155,-22,155,-118v0,-72,-36,-86,-155,-104v-117,-18,-169,-37,-169,-130v0,-106,90,-134,171,-134v77,0,172,15,172,15","w":483},"u":{"d":"421,-500r35,0r0,500r-35,0r0,-40v0,0,-78,49,-164,49v-136,0,-164,-55,-164,-249r0,-260r35,0r0,258v0,170,18,219,129,219v89,0,164,-50,164,-50r0,-427","w":557},"w":{"d":"38,-500r37,0r127,468r11,0r148,-458r39,0r147,458r11,0r128,-468r37,0r-137,500r-68,0r-138,-448r-139,448r-68,0","w":761},"y":{"d":"35,-500r37,0r147,468r41,0r148,-468r37,0r-229,730r-37,0r72,-230r-61,0","w":480},"z":{"d":"55,-468r0,-32r371,0r0,32r-328,436r328,0r0,32r-371,0r0,-32r328,-436r-328,0","w":481},"Z":{"d":"60,-666r0,-34r450,0r0,70r-413,575r0,22r413,0r0,34r-450,0r0,-69r413,-574r0,-24r-413,0","w":570},"0":{"d":"264,-670v150,0,231,68,231,354v0,255,-88,325,-230,325v-142,0,-231,-67,-231,-324v0,-286,86,-355,230,-355xm264,-636v-127,0,-192,61,-192,322v0,236,73,289,193,289v120,0,192,-54,192,-291v0,-256,-63,-320,-193,-320"},"1":{"d":"90,-524r204,-136r36,0r0,660r-36,0r0,-621r-187,126"},"2":{"d":"479,0r-418,0r0,-34r227,-239v75,-79,132,-140,132,-228v0,-101,-60,-135,-168,-135v-76,0,-180,26,-180,26r-5,-34v0,0,93,-26,186,-26v131,0,205,44,205,169v0,97,-50,156,-131,240r-217,226r369,0r0,35"},"3":{"d":"65,-648v0,0,95,-22,195,-22v144,0,198,52,198,165v0,124,-112,152,-113,152v75,20,132,52,132,171v0,129,-67,191,-208,191v-108,0,-217,-23,-217,-23r6,-34v0,0,105,23,211,23v118,-1,170,-53,170,-154v0,-171,-141,-153,-296,-153r0,-34r133,0v54,0,144,-43,144,-140v0,-94,-41,-130,-159,-130v-99,0,-190,22,-190,22"},"5":{"d":"82,-660r372,0r0,35r-338,0r-18,264v0,0,86,-51,179,-51v125,0,208,49,208,192v0,154,-84,227,-218,227v-100,0,-209,-24,-209,-24r5,-34v0,0,110,24,203,24v108,0,181,-66,181,-193v0,-123,-74,-158,-171,-158v-90,0,-179,55,-179,55r-34,-4"},"7":{"d":"59,-626r0,-34r402,0r0,65r-268,604r-35,-14r265,-598r0,-23r-364,0"},"8":{"d":"268,-670v142,0,237,49,237,165v0,89,-46,131,-136,157v83,24,146,66,146,169v0,149,-111,188,-247,188v-129,0,-244,-42,-244,-177v0,-111,57,-148,135,-180v-77,-27,-124,-68,-124,-158v0,-114,89,-164,233,-164xm268,-25v118,0,209,-32,209,-153v0,-107,-72,-131,-156,-152r-117,0v-87,21,-141,60,-141,161v0,111,94,144,205,144xm268,-636v-120,0,-195,32,-195,131v0,81,44,118,131,142r117,0v92,-22,145,-60,145,-141v0,-98,-76,-132,-198,-132"},"E":{"d":"103,0r0,-700r409,0r0,34r-373,0r0,289r313,0r0,34r-313,0r0,309r373,0r0,34r-409,0","w":572},"F":{"d":"103,0r0,-700r410,0r0,34r-374,0r0,316r314,0r0,34r-314,0r0,316r-36,0","w":563},"G":{"d":"356,-313r0,-34r186,0r0,331v0,0,-141,25,-220,25v-206,0,-262,-134,-262,-356v0,-218,49,-362,262,-362v105,0,220,25,220,25r-3,35v0,0,-126,-26,-217,-26v-188,0,-224,129,-224,328v0,200,40,322,224,322v71,0,178,-20,184,-20r0,-268r-150,0","w":617},"H":{"d":"557,0r0,-334r-418,0r0,334r-36,0r0,-700r36,0r0,332r418,0r0,-332r36,0r0,700r-36,0","w":696},"K":{"d":"501,0r-231,-329r-131,0r0,329r-36,0r0,-700r36,0r0,337r129,0r220,-337r43,0r-231,352r247,348r-46,0","w":597},"Q":{"d":"525,138r-87,-143v-31,9,-67,14,-110,14v-216,0,-268,-124,-268,-356v0,-228,54,-362,268,-362v214,0,268,132,268,362v0,173,-27,280,-121,328r86,140xm328,-25v193,0,230,-102,230,-322v0,-207,-42,-328,-230,-328v-190,0,-230,119,-230,328v0,210,37,322,230,322","w":656},"R":{"d":"534,0r-156,-290r-239,0r0,290r-36,0r0,-700r251,0v139,0,208,60,208,200v0,111,-38,185,-145,205r158,295r-41,0xm524,-500v0,-116,-53,-166,-170,-166r-215,0r0,342r215,0v131,0,170,-69,170,-176","w":630},"S":{"d":"468,-695r-4,35v0,0,-137,-17,-195,-17v-114,0,-178,40,-178,140v0,122,62,137,188,157v132,21,204,51,204,177v0,156,-74,210,-212,210v-75,0,-214,-16,-214,-16r4,-35v0,0,138,17,209,17v114,0,175,-48,175,-173v0,-102,-52,-125,-175,-144v-137,-21,-217,-44,-217,-191v0,-129,83,-176,216,-176v77,0,199,16,199,16","w":536},"T":{"d":"0,-666r0,-34r500,0r0,34r-231,0r0,666r-36,0r0,-666r-233,0","w":500},"V":{"d":"508,-700r36,0r-194,700r-116,0r-199,-700r36,0r192,666r58,0","w":579},"N":{"d":"103,0r0,-700r85,0r333,666r27,0r0,-666r36,0r0,700r-85,0r-334,-666r-26,0r0,666r-36,0","w":687},"$":{"d":"458,-660r-4,33v0,0,-67,-8,-125,-13r-36,282v115,20,179,50,179,165v1,157,-82,207,-227,199r-14,114v0,0,-35,-3,-35,-7r14,-109v-68,-4,-143,-13,-143,-13r4,-33v0,0,77,10,143,14r40,-301v-121,-20,-191,-46,-191,-179v0,-133,97,-174,236,-166r15,-116r35,0r-16,118v62,4,125,12,125,12xm99,-510v0,110,52,129,159,146r37,-278v-117,-8,-196,29,-196,132xm436,-190v0,-91,-45,-116,-148,-134r-38,298v120,4,186,-37,186,-164"},"!":{"d":"250,0r0,-80r40,0r0,80r-40,0xm252,-213r0,-486r35,0r0,486r-35,0"},"a":{"d":"418,-353r0,287v3,29,41,39,75,42r-2,32v-43,0,-81,-9,-103,-40v0,0,-93,41,-206,41v-78,0,-127,-49,-127,-146v0,-85,39,-134,138,-144r190,-20r0,-52v0,-87,-38,-122,-111,-122v-73,0,-189,17,-189,17r-3,-33v0,0,112,-18,192,-18v101,0,146,53,146,156xm383,-268r-186,18v-78,8,-105,51,-105,113v0,73,35,114,91,114v99,0,200,-40,200,-40r0,-205","w":518},"o":{"d":"265,-509v135,0,201,68,201,250v0,187,-36,268,-201,268v-166,0,-205,-69,-205,-270v0,-185,57,-248,205,-248xm265,-23v147,0,164,-77,164,-236v0,-160,-53,-218,-164,-218v-128,0,-168,48,-168,216v0,172,21,238,168,238","w":526},"J":{"d":"208,-701v0,212,1,382,1,596v0,178,-54,178,-174,178r0,-34v117,0,137,0,137,-154r0,-586r36,0","w":304},"t":{"d":"331,-468r-182,0r0,262v0,149,11,184,92,184v28,0,98,-8,98,-8r3,32v0,0,-66,8,-101,8v-91,0,-127,-34,-127,-178r0,-300r-79,0r0,-32r79,0r0,-163r35,0r0,163r182,0r0,32","w":372},"n":{"d":"136,0r-35,0r0,-500r35,0r0,40v0,0,89,-49,175,-49v136,0,164,55,164,249r0,260r-35,0r0,-258v0,-170,-18,-219,-129,-219v-89,0,-175,50,-175,50r0,427","w":573},"#":{"d":"513,-190r-120,0r0,190r-36,0r0,-190r-188,0r0,190r-36,0r0,-190r-120,0r0,-32r120,0r0,-226r-120,0r0,-32r120,0r0,-190r36,0r0,190r188,0r0,-190r36,0r0,190r120,0r0,32r-120,0r0,226r120,0r0,32xm357,-222r0,-226r-188,0r0,226r188,0"},"W":{"d":"45,-700r35,0r143,666r38,0r155,-656r40,0r160,656r38,0r138,-666r35,0r-144,700r-96,0r-151,-643r-146,643r-96,0","w":872},"@":{"d":"504,-719v311,-1,421,136,421,431v0,289,-68,298,-163,298v-56,0,-89,-3,-107,-63v-34,19,-120,62,-191,62v-62,0,-169,-9,-169,-252v0,-172,46,-266,210,-266v57,0,132,27,132,27r0,-18r35,0r0,200v0,272,13,280,90,280v77,0,126,-9,126,-268v0,-274,-95,-399,-384,-399v-277,0,-407,107,-407,426v0,332,130,428,407,428v40,0,143,-10,143,-10r3,33v0,0,-98,9,-146,9v-296,0,-444,-99,-444,-460v0,-338,148,-458,444,-458xm464,-23v69,0,146,-38,184,-60v-14,-68,-11,-256,-11,-367v0,0,-73,-27,-132,-27v-142,0,-175,85,-175,237v0,199,78,217,134,217","w":985},"`":{"d":"26,-732r192,96r-15,27r-193,-92","w":215},"\u0161":{"d":"403,-494r-2,33v0,0,-102,-16,-170,-16v-64,0,-134,19,-134,100v0,62,27,81,142,99v131,21,182,40,182,134v0,117,-72,153,-190,153v-57,0,-165,-16,-165,-16r4,-33v0,0,108,17,159,17v94,0,155,-22,155,-118v0,-72,-36,-86,-155,-104v-117,-18,-169,-37,-169,-130v0,-106,90,-134,171,-134v77,0,172,15,172,15xm234,-600r-121,-132r42,0r94,99r93,-99r42,0r-122,132r-28,0","w":483},"\u017e":{"d":"55,-468r0,-32r371,0r0,32r-328,436r328,0r0,32r-371,0r0,-32r328,-436r-328,0xm216,-600r-121,-132r42,0r94,99r93,-99r42,0r-122,132r-28,0","w":481},"M":{"d":"103,0r0,-700r77,0r245,645r247,-645r76,0r0,700r-36,0r0,-666r-14,0r-249,645r-50,0r-246,-645r-14,0r0,666r-36,0","w":851},"U":{"d":"126,-196v0,126,73,171,190,171v126,0,200,-44,200,-171r0,-504r36,0r0,504v0,150,-86,205,-236,205v-140,0,-226,-54,-226,-205r0,-504r36,0r0,504","w":642},"X":{"d":"83,-700r208,326r207,-326r43,0r-223,353r223,347r-43,0r-206,-322r-209,322r-43,0r226,-347r-226,-353r43,0","w":581},"Y":{"d":"289,-301r0,301r-36,0r0,-301r-228,-399r41,0r205,359r202,-359r42,0","w":540},"\u00f6":{"d":"265,-509v135,0,201,68,201,250v0,187,-36,268,-201,268v-166,0,-205,-69,-205,-270v0,-185,57,-248,205,-248xm265,-23v147,0,164,-77,164,-236v0,-160,-53,-218,-164,-218v-128,0,-168,48,-168,216v0,172,21,238,168,238xm146,-638r0,-62r35,0r0,62r-35,0xm336,-638r0,-62r35,0r0,62r-35,0","w":526},"\u00fc":{"d":"421,-500r35,0r0,500r-35,0r0,-40v0,0,-78,49,-164,49v-136,0,-164,-55,-164,-249r0,-260r35,0r0,258v0,170,18,219,129,219v89,0,164,-50,164,-50r0,-427xm173,-638r0,-62r35,0r0,62r-35,0xm363,-638r0,-62r35,0r0,62r-35,0","w":557},"\u0131":{"d":"113,0r0,-500r35,0r0,500r-35,0","w":261},"\u00dc":{"d":"126,-196v0,126,73,171,190,171v126,0,200,-44,200,-171r0,-504r36,0r0,504v0,150,-86,205,-236,205v-140,0,-226,-54,-226,-205r0,-504r36,0r0,504xm220,-838r0,-62r35,0r0,62r-35,0xm410,-838r0,-62r35,0r0,62r-35,0","w":642},"\u00d6":{"d":"328,-25v193,0,230,-102,230,-322v0,-207,-42,-328,-230,-328v-190,0,-230,119,-230,328v0,210,37,322,230,322xm328,9v-216,0,-268,-124,-268,-356v0,-228,54,-362,268,-362v214,0,268,132,268,362v0,242,-53,356,-268,356xm213,-838r0,-62r35,0r0,62r-35,0xm403,-838r0,-62r35,0r0,62r-35,0","w":656},"\u00c7":{"d":"422,127v0,53,-34,74,-82,74v-44,0,-81,-4,-81,-4r2,-28v0,0,44,4,78,4v29,0,48,-11,48,-46v0,-52,-54,-41,-102,-42r0,-77v-187,-9,-227,-141,-227,-355v0,-218,36,-362,249,-362v95,0,185,19,185,19r-3,35v0,0,-101,-20,-182,-20v-188,0,-211,129,-211,328v0,200,27,322,211,322v71,0,182,-20,182,-20r3,34v0,0,-97,18,-174,20r0,48v71,0,104,14,104,70","w":537},"\u00e7":{"d":"357,127v0,53,-34,74,-82,74v-44,0,-81,-4,-81,-4r2,-28v0,0,44,4,78,4v29,0,48,-11,48,-46v0,-52,-54,-41,-102,-42r0,-78v-129,-12,-160,-86,-160,-268v0,-185,56,-248,205,-248v38,0,120,10,120,10r-2,32v0,0,-80,-10,-118,-10v-128,0,-168,58,-168,216v0,172,26,238,168,238v38,0,120,-9,120,-9r2,32r-134,9r0,48v71,0,104,14,104,70","w":437},"\u0160":{"d":"468,-695r-4,35v0,0,-137,-17,-195,-17v-114,0,-178,40,-178,140v0,122,62,137,188,157v132,21,204,51,204,177v0,156,-74,210,-212,210v-75,0,-214,-16,-214,-16r4,-35v0,0,138,17,209,17v114,0,175,-48,175,-173v0,-102,-52,-125,-175,-144v-137,-21,-217,-44,-217,-191v0,-129,83,-176,216,-176v77,0,199,16,199,16xm421,-934r-134,125r-30,0r-134,-125r45,0r104,96r103,-96r46,0","w":536},"\u0142":{"d":"95,0r0,-319r-78,54r-19,-27r97,-68r0,-370r35,0r0,346r81,-57r19,27r-100,70r0,344r-35,0","w":225},"\u0141":{"d":"480,0r-377,0r0,-316r-79,55r-20,-27r99,-69r0,-343r36,0r0,318r209,-147r20,27r-229,161r0,307r341,0r0,34"},"\u017d":{"d":"60,-666r0,-34r450,0r0,70r-413,575r0,22r413,0r0,34r-450,0r0,-69r413,-574r0,-24r-413,0xm431,-934r-134,125r-30,0r-134,-125r45,0r104,96r103,-96r46,0","w":570},"\u0178":{"d":"289,-301r0,301r-36,0r0,-301r-228,-399r41,0r205,359r202,-359r42,0xm149,-838r0,-62r35,0r0,62r-35,0xm345,-838r0,-62r35,0r0,62r-35,0","w":540},"I":{"d":"95,0r0,-700r36,0r0,700r-36,0","w":226},"O":{"d":"328,-25v193,0,230,-102,230,-322v0,-207,-42,-328,-230,-328v-190,0,-230,119,-230,328v0,210,37,322,230,322xm328,9v-216,0,-268,-124,-268,-356v0,-228,54,-362,268,-362v214,0,268,132,268,362v0,242,-53,356,-268,356","w":656},"~":{"d":"455,-370r7,37v0,0,-54,52,-100,52v-62,0,-143,-54,-192,-54v-37,0,-95,53,-95,53r-7,-35v0,0,56,-54,102,-54v63,0,147,54,191,54v37,0,94,-53,94,-53"},"L":{"d":"480,0r-377,0r0,-700r36,0r0,666r341,0r0,34"},"B":{"d":"103,-700r240,0v134,0,202,52,202,170v0,99,-40,148,-97,169v62,17,124,57,124,165v0,256,-247,186,-469,196r0,-700xm354,-341r-215,0r0,307v185,-8,396,51,396,-162v0,-142,-130,-145,-181,-145xm343,-666r-204,0r0,292r215,0v109,0,154,-54,154,-156v0,-97,-53,-136,-165,-136","w":627},"D":{"d":"363,0r-260,0r0,-700r260,0v176,0,234,164,234,340v0,176,-58,360,-234,360xm559,-360v0,-150,-46,-306,-196,-306r-224,0r0,632r224,0v150,0,196,-176,196,-326","w":653},"P":{"d":"358,-257r-219,0r0,257r-36,0r0,-700r255,0v145,0,207,66,207,211v0,145,-62,232,-207,232xm139,-291r219,0v121,0,169,-77,169,-198v0,-121,-48,-177,-169,-177r-219,0r0,375","w":615},"b":{"d":"308,-509v136,0,170,76,170,248v0,187,-42,270,-228,270v-68,0,-149,-9,-149,-9r0,-730r35,0r0,261v0,0,83,-40,172,-40xm249,-23v167,0,192,-77,192,-236v0,-150,-22,-218,-133,-218v-89,0,-172,40,-172,40r0,408v0,0,78,6,113,6","w":538},"v":{"d":"35,-500r37,0r146,468r43,0r147,-468r37,0r-157,500r-98,0","w":480},"x":{"d":"38,-500r40,0r150,223r150,-223r40,0r-169,250r169,250r-41,0r-149,-223r-149,223r-41,0r169,-250","w":456},"6":{"d":"457,-659r-4,33v0,0,-82,-10,-166,-10v-130,0,-207,95,-208,278v0,1,104,-48,192,-48v143,0,218,66,218,198v0,135,-77,217,-224,217v-156,0,-224,-130,-224,-346v0,-231,97,-333,246,-333v84,0,170,11,170,11xm270,-372v-92,0,-192,49,-192,49v3,172,53,298,187,298v121,0,186,-64,186,-183v0,-112,-69,-164,-181,-164"},"9":{"d":"74,-2r4,-33v0,0,82,10,166,10v140,0,212,-82,214,-275v0,0,-114,44,-202,44v-136,0,-209,-59,-209,-195v0,-133,87,-219,220,-219v161,0,228,136,228,346v0,252,-92,333,-251,333v-84,0,-170,-11,-170,-11xm258,-290v79,0,201,-45,201,-45v-4,-178,-55,-301,-192,-301v-112,0,-182,73,-182,185v0,114,59,161,173,161"},"<":{"d":"410,-520r-315,206r315,217r0,41v0,0,-313,-213,-347,-238r0,-36r347,-229r0,39"},">":{"d":"378,-314r-315,-206r0,-39r347,229r0,36v-34,25,-347,238,-347,238r0,-41"},"[":{"d":"231,-749r0,32r-147,0r0,808r147,0r0,32r-182,0r0,-872r182,0","w":300},"\\":{"d":"432,-14r-35,14r-301,-687r35,-14"},"]":{"d":"49,-717r0,-32r182,0r0,872r-182,0r0,-32r147,0r0,-808r-147,0","w":300},"|":{"d":"242,59r0,-759r35,0r0,759r-35,0"},"\u0192":{"d":"254,-458v3,-146,19,-215,127,-215v35,0,93,3,93,3r-2,32v0,0,-61,-2,-91,-2v-57,0,-92,46,-92,146r0,110r162,0r0,32r-162,0r0,418v0,134,-46,179,-127,179v-35,0,-92,-3,-92,-3r2,-33v0,0,62,3,90,3v57,0,92,-36,92,-146r0,-418r-69,0r0,-32r69,0r0,-74"},"\u0152":{"d":"884,1r-398,0v-42,4,-121,8,-158,8v-216,0,-268,-124,-268,-354v0,-230,54,-364,268,-364v37,0,120,9,157,9r399,0r0,36r-363,0r0,286r303,0r0,36r-303,0r0,306r363,0r0,37xm328,-25v22,0,122,-6,157,-9r0,-629v-35,-3,-132,-12,-157,-12v-190,0,-230,119,-230,328v0,210,37,322,230,322","w":944},"\u0153":{"d":"618,-23v70,0,182,-9,182,-9r2,32v0,0,-112,9,-185,9v-94,0,-144,-39,-169,-107v-24,74,-77,107,-183,107v-166,0,-205,-69,-205,-270v0,-185,57,-248,205,-248v96,0,157,35,184,120v33,-89,101,-120,182,-120v133,0,198,91,190,273r-355,0v0,138,36,213,152,213xm265,-23v147,0,164,-77,164,-236v0,-160,-53,-218,-164,-218v-128,0,-168,48,-168,216v0,172,21,238,168,238xm466,-268r318,0v0,-153,-49,-209,-153,-209v-100,0,-165,58,-165,209","w":876},"4":{"d":"380,0r0,-142r-347,0r0,-30r205,-488r39,0r-201,484r304,0r0,-219r36,0r0,219r98,0r0,34r-98,0r0,142r-36,0"},"\"":{"d":"226,-501r-35,0r0,-200r35,0r0,200xm85,-501r-35,0r0,-200r35,0r0,200","w":280},"'":{"d":"32,-488r-2,-210r40,0r-5,210r-33,0","w":100},"(":{"d":"153,-750r35,0v0,0,-95,260,-95,449v0,186,95,426,95,426r-35,0v0,0,-97,-226,-97,-426v0,-200,97,-449,97,-449","w":260},")":{"d":"56,-750r35,0v0,0,97,239,97,439v0,200,-97,436,-97,436r-35,0v0,0,95,-250,95,-436v0,-189,-95,-439,-95,-439","w":260},",":{"d":"47,123r42,-210r40,0r-51,210r-31,0","w":170},"-":{"d":"60,-264r0,-34r320,0r0,34r-320,0","w":440},".":{"d":"98,0r0,-80r40,0r0,80r-40,0","w":248},":":{"d":"77,-344r0,-80r40,0r0,80r-40,0xm77,0r0,-80r40,0r0,80r-40,0","w":141},";":{"d":"37,123r41,-210r42,0r-52,210r-31,0xm75,-344r0,-80r40,0r0,80r-40,0","w":170},"=":{"d":"41,-343r0,-34r445,0r0,34r-445,0xm42,-174r0,-34r445,0r0,34r-445,0"},"?":{"d":"376,-551v0,163,-199,211,-199,323r0,38r-35,0v-25,-174,199,-199,199,-361v0,-96,-59,-125,-165,-125v-48,0,-161,28,-161,28r-5,-34v0,0,112,-27,166,-27v127,0,200,41,200,158xm140,-1r0,-80r40,0r0,80r-40,0","w":386},"_":{"d":"27,34r428,0r0,34r-428,0r0,-34","w":520},"{":{"d":"139,-169v0,135,-29,260,136,261r-2,32v-128,-5,-176,-58,-176,-177v0,-129,30,-212,-97,-241r0,-32v129,-25,97,-121,97,-248v0,-119,48,-172,176,-177r2,32v-166,-1,-136,129,-136,264v0,88,-27,120,-100,144v73,24,100,58,100,142","w":285},"}":{"d":"136,-169v0,-84,27,-118,100,-142v-73,-24,-100,-56,-100,-144v0,-29,7,-86,7,-119v0,-90,-29,-140,-143,-145r2,-32v128,5,176,58,176,177v0,125,-32,225,97,248r0,32v-126,30,-97,110,-97,241v0,119,-48,172,-176,177r-2,-32v165,-1,136,-125,136,-261","w":285},"\u20ac":{"d":"5,-427r64,0v13,-159,66,-250,246,-250v95,0,175,19,175,19r-3,35v0,0,-91,-20,-172,-20v-156,0,-198,77,-208,216r311,1r0,33r-313,0r0,114r313,1r0,33r-312,0v10,144,53,220,209,220v71,0,172,-20,172,-20r3,34v0,0,-96,20,-175,20v-178,0,-234,-87,-246,-254r-64,0r0,-34r62,0r0,-114r-62,0r0,-34"},"&":{"d":"323,-694v109,0,153,60,153,145v0,99,-50,144,-165,182r187,185v14,-40,24,-88,31,-146r35,0v-9,69,-21,126,-39,172r140,137r-24,26r-131,-130v-47,94,-120,132,-222,132v-176,0,-230,-83,-230,-217v0,-124,52,-169,163,-201v-47,-51,-51,-88,-51,-141v0,-84,50,-144,153,-144xm290,-24v90,0,154,-37,194,-124r-237,-235v-113,30,-154,69,-154,174v0,119,52,185,197,185xm323,-662v-134,0,-152,153,-73,235r36,36v112,-38,155,-72,155,-159v0,-69,-32,-112,-118,-112","w":700},"*":{"d":"434,-519r-137,0r42,129r-32,10r-42,-130r-110,79r-19,-27r110,-80r-109,-80r20,-27r110,81r42,-129r32,10r-42,130r135,0r0,34"},"%":{"d":"416,-272v71,0,106,38,106,134v0,96,-36,138,-106,138v-71,0,-106,-42,-106,-139v0,-95,34,-133,106,-133xm186,-6r144,-695r36,7r-144,695xm345,-139v0,68,16,107,71,107v55,0,71,-38,71,-106v0,-68,-16,-102,-71,-102v-54,0,-71,34,-71,101xm135,-702v71,0,106,38,106,134v0,96,-36,138,-106,138v-71,0,-106,-42,-106,-139v0,-95,34,-133,106,-133xm64,-569v0,68,16,107,71,107v55,0,71,-38,71,-106v0,-68,-16,-102,-71,-102v-54,0,-71,34,-71,101"},"+":{"d":"-49,-234r0,-34r232,0r0,-232r36,0r0,232r234,0r0,34r-234,0r0,234r-36,0r0,-234r-232,0","w":410},"^":{"d":"417,-333r-158,-291r-149,291r-40,0r171,-327r37,0r181,327r-42,0"},"\u01ff":{"d":"60,-261v0,-222,110,-274,288,-236r45,-108r30,11r-46,110v60,33,89,104,89,225v0,187,-36,268,-201,268v-34,0,-62,-3,-86,-9r-46,114r-30,-10r46,-114v-70,-33,-89,-109,-89,-251xm265,-477v-128,0,-168,48,-168,216v0,121,10,189,67,219r172,-424v-20,-7,-44,-11,-71,-11xm265,-23v147,0,164,-77,164,-236v0,-101,-22,-161,-65,-192r-173,420v20,6,45,8,74,8xm159,-636r192,-96r16,31r-193,92","w":526},"\u0100":{"d":"35,0r215,-700r106,0r213,698r-36,0r-67,-213r-328,0r-67,215r-36,0xm275,-666r-127,417r308,0r-127,-417r-54,0xm148,-832r0,-32r287,0r0,32r-287,0","w":604},"\u0102":{"d":"35,0r215,-700r106,0r213,698r-36,0r-67,-213r-328,0r-67,215r-36,0xm275,-666r-127,417r308,0r-127,-417r-54,0xm164,-923r35,0v0,55,48,87,103,87v55,0,103,-32,103,-87r35,0v0,74,-64,119,-138,119v-74,0,-138,-45,-138,-119","w":604},"\u01fa":{"d":"397,-760v0,34,-14,60,-37,76r209,682r-36,0r-67,-213r-328,0r-67,215r-36,0r209,-681v-26,-15,-41,-42,-41,-79v0,-58,39,-92,97,-92v58,0,97,34,97,92xm275,-666r-127,417r308,0r-127,-417r-54,0xm300,-822v-76,0,-85,114,-20,122v53,7,84,-13,84,-60v0,-40,-24,-62,-64,-62xm198,-916r192,-96r16,31r-193,92","w":604},"\u0104":{"d":"586,159r4,33v0,0,-36,8,-64,8v-46,0,-80,-31,-80,-82v0,-44,80,-129,86,-123r-66,-210r-328,0r-67,215r-36,0r215,-700r106,0r213,698r-12,0r7,1v0,0,-81,85,-81,117v0,27,19,50,47,50v19,0,56,-7,56,-7xm275,-666r-127,417r308,0r-127,-417r-54,0","w":604},"\u01fc":{"d":"429,0r0,-215r-276,0r-78,215r-40,0r251,-700r552,0r0,34r-373,0r0,288r313,0r0,34r-313,0r0,310r373,0r0,34r-409,0xm314,-666r-149,417r264,0r0,-417r-115,0xm349,-826r192,-96r16,31r-193,92","w":847},"\u0106":{"d":"489,-45r3,34v0,0,-106,20,-185,20v-206,0,-249,-134,-249,-356v0,-218,36,-362,249,-362v95,0,185,19,185,19r-3,35v0,0,-101,-20,-182,-20v-188,0,-211,129,-211,328v0,200,27,322,211,322v71,0,182,-20,182,-20xm184,-826r192,-96r16,31r-193,92","w":537},"\u0108":{"d":"489,-45r3,34v0,0,-106,20,-185,20v-206,0,-249,-134,-249,-356v0,-218,36,-362,249,-362v95,0,185,19,185,19r-3,35v0,0,-101,-20,-182,-20v-188,0,-211,129,-211,328v0,200,27,322,211,322v71,0,182,-20,182,-20xm160,-804r134,-125r30,0r134,125r-45,0r-104,-96r-103,96r-46,0","w":537},"\u010c":{"d":"489,-45r3,34v0,0,-106,20,-185,20v-206,0,-249,-134,-249,-356v0,-218,36,-362,249,-362v95,0,185,19,185,19r-3,35v0,0,-101,-20,-182,-20v-188,0,-211,129,-211,328v0,200,27,322,211,322v71,0,182,-20,182,-20xm440,-934r-134,125r-30,0r-134,-125r45,0r104,96r103,-96r46,0","w":537},"\u010a":{"d":"489,-45r3,34v0,0,-106,20,-185,20v-206,0,-249,-134,-249,-356v0,-218,36,-362,249,-362v95,0,185,19,185,19r-3,35v0,0,-101,-20,-182,-20v-188,0,-211,129,-211,328v0,200,27,322,211,322v71,0,182,-20,182,-20xm271,-845r0,-55r35,0r0,55r-35,0","w":537},"\u010e":{"d":"363,0r-260,0r0,-700r260,0v176,0,234,164,234,340v0,176,-58,360,-234,360xm559,-360v0,-150,-46,-306,-196,-306r-224,0r0,632r224,0v150,0,196,-176,196,-326xm448,-934r-134,125r-30,0r-134,-125r45,0r104,96r103,-96r46,0","w":653},"\u011a":{"d":"103,0r0,-700r409,0r0,34r-373,0r0,289r313,0r0,34r-313,0r0,309r373,0r0,34r-409,0xm458,-934r-134,125r-30,0r-134,-125r45,0r104,96r103,-96r46,0","w":572},"\u0112":{"d":"103,0r0,-700r409,0r0,34r-373,0r0,289r313,0r0,34r-313,0r0,309r373,0r0,34r-409,0xm162,-832r0,-32r287,0r0,32r-287,0","w":572},"\u0114":{"d":"103,0r0,-700r409,0r0,34r-373,0r0,289r313,0r0,34r-313,0r0,309r373,0r0,34r-409,0xm178,-924r35,0v0,55,48,87,103,87v55,0,103,-32,103,-87r35,0v0,74,-64,119,-138,119v-74,0,-138,-45,-138,-119","w":572},"\u0116":{"d":"103,0r0,-700r409,0r0,34r-373,0r0,289r313,0r0,34r-313,0r0,309r373,0r0,34r-409,0xm288,-845r0,-55r35,0r0,55r-35,0","w":572},"\u0118":{"d":"103,0r0,-700r409,0r0,34r-373,0r0,289r313,0r0,34r-313,0r0,309r373,0r0,34r-32,0v-5,4,-80,85,-80,116v0,27,19,50,47,50v19,0,56,-7,56,-7r4,33v0,0,-36,8,-64,8v-46,0,-80,-31,-80,-82v0,-40,63,-104,77,-118r-337,0","w":572},"\u011c":{"d":"356,-313r0,-34r186,0r0,331v0,0,-141,25,-220,25v-206,0,-262,-134,-262,-356v0,-218,49,-362,262,-362v105,0,220,25,220,25r-3,35v0,0,-126,-26,-217,-26v-188,0,-224,129,-224,328v0,200,40,322,224,322v71,0,178,-20,184,-20r0,-268r-150,0xm170,-804r134,-125r30,0r134,125r-45,0r-104,-96r-103,96r-46,0","w":617},"\u011e":{"d":"356,-313r0,-34r186,0r0,331v0,0,-141,25,-220,25v-206,0,-262,-134,-262,-356v0,-218,49,-362,262,-362v105,0,220,25,220,25r-3,35v0,0,-126,-26,-217,-26v-188,0,-224,129,-224,328v0,200,40,322,224,322v71,0,178,-20,184,-20r0,-268r-150,0xm190,-923r35,0v0,55,48,87,103,87v55,0,103,-32,103,-87r35,0v0,74,-64,119,-138,119v-74,0,-138,-45,-138,-119","w":617},"\u0120":{"d":"356,-313r0,-34r186,0r0,331v0,0,-141,25,-220,25v-206,0,-262,-134,-262,-356v0,-218,49,-362,262,-362v105,0,220,25,220,25r-3,35v0,0,-126,-26,-217,-26v-188,0,-224,129,-224,328v0,200,40,322,224,322v71,0,178,-20,184,-20r0,-268r-150,0xm291,-845r0,-55r35,0r0,55r-35,0","w":617},"\u0122":{"d":"356,-313r0,-34r186,0r0,331v0,0,-141,25,-220,25v-206,0,-262,-134,-262,-356v0,-218,49,-362,262,-362v105,0,220,25,220,25r-3,35v0,0,-126,-26,-217,-26v-188,0,-224,129,-224,328v0,200,40,322,224,322v71,0,178,-20,184,-20r0,-268r-150,0xm272,267r38,-189r36,0r-46,189r-28,0","w":617},"\u0124":{"d":"557,0r0,-334r-418,0r0,334r-36,0r0,-700r36,0r0,332r418,0r0,-332r36,0r0,700r-36,0xm200,-804r134,-125r30,0r134,125r-45,0r-104,-96r-103,96r-46,0","w":696},"\u0126":{"d":"19,-522r0,-32r84,0r0,-146r36,0r0,146r418,0r0,-146r36,0r0,146r93,0r0,32r-93,0r0,522r-36,0r0,-334r-418,0r0,334r-36,0r0,-522r-84,0xm139,-368r418,0r0,-154r-418,0r0,154","w":696},"\u0128":{"d":"95,0r0,-700r36,0r0,700r-36,0xm275,-903r11,28v0,0,-52,55,-83,55v-43,0,-127,-64,-159,-64v-21,0,-80,55,-80,55r-10,-29v0,0,57,-57,90,-57v43,0,127,63,159,63v18,0,72,-51,72,-51","w":226},"\u012a":{"d":"95,0r0,-700r36,0r0,700r-36,0xm-30,-842r0,-32r287,0r0,32r-287,0","w":226},"\u012c":{"d":"95,0r0,-700r36,0r0,700r-36,0xm-25,-923r35,0v0,55,48,87,103,87v55,0,103,-32,103,-87r35,0v0,74,-64,119,-138,119v-74,0,-138,-45,-138,-119","w":226},"\u0130":{"d":"95,0r0,-700r36,0r0,700r-36,0xm95,-845r0,-55r35,0r0,55r-35,0","w":226},"\u012e":{"d":"153,159r4,33v0,0,-36,8,-64,8v-46,0,-80,-31,-80,-82v0,-43,79,-120,82,-123r0,-695r36,0r-1,700v-5,4,-80,85,-80,116v0,27,19,50,47,50v19,0,56,-7,56,-7","w":226},"\u0134":{"d":"208,-701v0,212,1,382,1,596v0,178,-54,178,-174,178r0,-34v117,0,137,0,137,-154r0,-586r36,0xm22,-804r134,-125r30,0r134,125r-45,0r-104,-96r-103,96r-46,0","w":304},"\u0136":{"d":"501,0r-231,-329r-131,0r0,329r-36,0r0,-700r36,0r0,337r129,0r220,-337r43,0r-231,352r247,348r-46,0xm262,267r38,-189r36,0r-46,189r-28,0","w":597},"\u0139":{"d":"480,0r-377,0r0,-700r36,0r0,666r341,0r0,34xm161,-826r192,-96r16,31r-193,92"},"\u013d":{"d":"480,0r-377,0r0,-700r36,0r0,666r341,0r0,34xm435,-700r0,217r-34,0r0,-217r34,0"},"\u013b":{"d":"480,0r-377,0r0,-700r36,0r0,666r341,0r0,34xm229,267r38,-189r36,0r-46,189r-28,0"},"\u0143":{"d":"103,0r0,-700r85,0r333,666r27,0r0,-666r36,0r0,700r-85,0r-334,-666r-26,0r0,666r-36,0xm239,-826r192,-96r16,31r-193,92","w":687},"\u0147":{"d":"103,0r0,-700r85,0r333,666r27,0r0,-666r36,0r0,700r-85,0r-334,-666r-26,0r0,666r-36,0xm493,-929r-134,125r-30,0r-134,-125r45,0r104,96r103,-96r46,0","w":687},"\u0145":{"d":"103,0r0,-700r85,0r333,666r27,0r0,-666r36,0r0,700r-85,0r-334,-666r-26,0r0,666r-36,0xm306,267r38,-189r36,0r-46,189r-28,0","w":687},"\u014c":{"d":"328,-25v193,0,230,-102,230,-322v0,-207,-42,-328,-230,-328v-190,0,-230,119,-230,328v0,210,37,322,230,322xm328,9v-216,0,-268,-124,-268,-356v0,-228,54,-362,268,-362v214,0,268,132,268,362v0,242,-53,356,-268,356xm181,-842r0,-32r287,0r0,32r-287,0","w":656},"\u014e":{"d":"328,-25v193,0,230,-102,230,-322v0,-207,-42,-328,-230,-328v-190,0,-230,119,-230,328v0,210,37,322,230,322xm328,9v-216,0,-268,-124,-268,-356v0,-228,54,-362,268,-362v214,0,268,132,268,362v0,242,-53,356,-268,356xm190,-923r35,0v0,55,48,87,103,87v55,0,103,-32,103,-87r35,0v0,74,-64,119,-138,119v-74,0,-138,-45,-138,-119","w":656},"\u0150":{"d":"328,-25v193,0,230,-102,230,-322v0,-207,-42,-328,-230,-328v-190,0,-230,119,-230,328v0,210,37,322,230,322xm328,9v-216,0,-268,-124,-268,-356v0,-228,54,-362,268,-362v214,0,268,132,268,362v0,242,-53,356,-268,356xm325,-818r191,-87r15,29r-192,88xm134,-818r192,-88r14,30r-191,87","w":656},"\u01fe":{"d":"328,9v-54,0,-98,-8,-134,-23r-58,125r-33,-13r60,-129v-80,-53,-103,-160,-103,-316v0,-228,54,-362,268,-362v57,0,103,10,140,28r52,-111r33,14r-55,116v75,58,98,166,98,315v0,242,-53,356,-268,356xm98,-347v0,138,16,233,81,283r273,-584v-32,-18,-72,-27,-124,-27v-190,0,-230,119,-230,328xm328,-25v193,0,230,-102,230,-322v0,-130,-17,-226,-76,-280r-273,581v31,14,70,21,119,21xm220,-826r192,-96r16,31r-193,92","w":656},"\u0154":{"d":"534,0r-156,-290r-239,0r0,290r-36,0r0,-700r251,0v139,0,208,60,208,200v0,111,-38,185,-145,205r158,295r-41,0xm524,-500v0,-116,-53,-166,-170,-166r-215,0r0,342r215,0v131,0,170,-69,170,-176xm211,-826r192,-96r16,31r-193,92","w":630},"\u0158":{"d":"534,0r-156,-290r-239,0r0,290r-36,0r0,-700r251,0v139,0,208,60,208,200v0,111,-38,185,-145,205r158,295r-41,0xm524,-500v0,-116,-53,-166,-170,-166r-215,0r0,342r215,0v131,0,170,-69,170,-176xm465,-929r-134,125r-30,0r-134,-125r45,0r104,96r103,-96r46,0","w":630},"\u0156":{"d":"534,0r-156,-290r-239,0r0,290r-36,0r0,-700r251,0v139,0,208,60,208,200v0,111,-38,185,-145,205r158,295r-41,0xm524,-500v0,-116,-53,-166,-170,-166r-215,0r0,342r215,0v131,0,170,-69,170,-176xm279,267r38,-189r36,0r-46,189r-28,0","w":630},"\u015a":{"d":"468,-695r-4,35v0,0,-137,-17,-195,-17v-114,0,-178,40,-178,140v0,122,62,137,188,157v132,21,204,51,204,177v0,156,-74,210,-212,210v-75,0,-214,-16,-214,-16r4,-35v0,0,138,17,209,17v114,0,175,-48,175,-173v0,-102,-52,-125,-175,-144v-137,-21,-217,-44,-217,-191v0,-129,83,-176,216,-176v77,0,199,16,199,16xm164,-826r192,-96r16,31r-193,92","w":536},"\u015c":{"d":"468,-695r-4,35v0,0,-137,-17,-195,-17v-114,0,-178,40,-178,140v0,122,62,137,188,157v132,21,204,51,204,177v0,156,-74,210,-212,210v-75,0,-214,-16,-214,-16r4,-35v0,0,138,17,209,17v114,0,175,-48,175,-173v0,-102,-52,-125,-175,-144v-137,-21,-217,-44,-217,-191v0,-129,83,-176,216,-176v77,0,199,16,199,16xm120,-804r134,-125r30,0r134,125r-45,0r-104,-96r-103,96r-46,0","w":536},"\u015e":{"d":"390,127v0,53,-34,74,-82,74v-44,0,-81,-4,-81,-4r2,-28v0,0,44,4,78,4v29,0,48,-11,48,-46v0,-52,-54,-41,-102,-42r0,-78v-77,-2,-196,-16,-196,-16r4,-35v0,0,138,17,209,17v114,0,175,-48,175,-173v0,-102,-52,-125,-175,-144v-137,-21,-217,-44,-217,-191v0,-129,83,-176,216,-176v77,0,199,16,199,16r-4,35v0,0,-137,-17,-195,-17v-114,0,-178,40,-178,140v0,122,62,137,188,157v132,21,204,51,204,177v0,150,-69,205,-197,209r0,51v71,0,104,14,104,70","w":536},"\u0218":{"d":"468,-695r-4,35v0,0,-137,-17,-195,-17v-114,0,-178,40,-178,140v0,122,62,137,188,157v132,21,204,51,204,177v0,156,-74,210,-212,210v-75,0,-214,-16,-214,-16r4,-35v0,0,138,17,209,17v114,0,175,-48,175,-173v0,-102,-52,-125,-175,-144v-137,-21,-217,-44,-217,-191v0,-129,83,-176,216,-176v77,0,199,16,199,16xm232,267r38,-189r36,0r-46,189r-28,0","w":536},"\u0164":{"d":"0,-666r0,-34r500,0r0,34r-231,0r0,666r-36,0r0,-666r-233,0xm400,-929r-134,125r-30,0r-134,-125r45,0r104,96r103,-96r46,0","w":500},"\u0162":{"d":"0,-666r0,-34r500,0r0,34r-231,0r0,666r-36,0r0,-666r-233,0xm212,267r38,-189r36,0r-46,189r-28,0","w":500},"\u0166":{"d":"57,-332r0,-32r176,0r0,-302r-233,0r0,-34r500,0r0,34r-231,0r0,302r188,0r0,32r-188,0r0,332r-36,0r0,-332r-176,0","w":500},"\u0168":{"d":"126,-196v0,126,73,171,190,171v126,0,200,-44,200,-171r0,-504r36,0r0,504v0,150,-86,205,-236,205v-140,0,-226,-54,-226,-205r0,-504r36,0r0,504xm482,-903r11,28v0,0,-52,55,-83,55v-43,0,-127,-64,-159,-64v-21,0,-80,55,-80,55r-10,-29v0,0,57,-57,90,-57v43,0,127,63,159,63v18,0,72,-51,72,-51","w":642},"\u016a":{"d":"126,-196v0,126,73,171,190,171v126,0,200,-44,200,-171r0,-504r36,0r0,504v0,150,-86,205,-236,205v-140,0,-226,-54,-226,-205r0,-504r36,0r0,504xm177,-842r0,-32r287,0r0,32r-287,0","w":642},"\u016c":{"d":"126,-196v0,126,73,171,190,171v126,0,200,-44,200,-171r0,-504r36,0r0,504v0,150,-86,205,-236,205v-140,0,-226,-54,-226,-205r0,-504r36,0r0,504xm183,-923r35,0v0,55,48,87,103,87v55,0,103,-32,103,-87r35,0v0,74,-64,119,-138,119v-74,0,-138,-45,-138,-119","w":642},"\u016e":{"d":"126,-196v0,126,73,171,190,171v126,0,200,-44,200,-171r0,-504r36,0r0,504v0,150,-86,205,-236,205v-140,0,-226,-54,-226,-205r0,-504r36,0r0,504xm418,-850v0,58,-39,92,-97,92v-58,0,-97,-34,-97,-92v0,-58,39,-92,97,-92v58,0,97,34,97,92xm257,-850v0,40,24,62,64,62v40,0,64,-22,64,-62v0,-40,-24,-62,-64,-62v-40,0,-64,22,-64,62","w":642},"\u0170":{"d":"126,-196v0,126,73,171,190,171v126,0,200,-44,200,-171r0,-504r36,0r0,504v0,150,-86,205,-236,205v-140,0,-226,-54,-226,-205r0,-504r36,0r0,504xm348,-791r191,-87r15,29r-192,88xm157,-791r192,-88r14,30r-191,87","w":642},"\u0172":{"d":"427,159r4,33v0,0,-36,8,-64,8v-46,0,-80,-31,-80,-82v0,-34,46,-87,69,-111v-158,12,-266,-38,-266,-203r0,-504r36,0r0,504v0,126,73,171,190,171v126,0,200,-44,200,-171r0,-504r36,0r0,504v0,118,-53,177,-149,197v-9,9,-79,85,-79,115v0,27,19,50,47,50v19,0,56,-7,56,-7","w":642},"\u1e80":{"d":"45,-700r35,0r143,666r38,0r155,-656r40,0r160,656r38,0r138,-666r35,0r-144,700r-96,0r-151,-643r-146,643r-96,0xm338,-922r192,96r-15,27r-193,-92","w":872},"\u1e82":{"d":"45,-700r35,0r143,666r38,0r155,-656r40,0r160,656r38,0r138,-666r35,0r-144,700r-96,0r-151,-643r-146,643r-96,0xm342,-826r192,-96r16,31r-193,92","w":872},"\u0174":{"d":"45,-700r35,0r143,666r38,0r155,-656r40,0r160,656r38,0r138,-666r35,0r-144,700r-96,0r-151,-643r-146,643r-96,0xm287,-804r134,-125r30,0r134,125r-45,0r-104,-96r-103,96r-46,0","w":872},"\u1e84":{"d":"45,-700r35,0r143,666r38,0r155,-656r40,0r160,656r38,0r138,-666r35,0r-144,700r-96,0r-151,-643r-146,643r-96,0xm320,-838r0,-62r35,0r0,62r-35,0xm516,-838r0,-62r35,0r0,62r-35,0","w":872},"\u1ef2":{"d":"289,-301r0,301r-36,0r0,-301r-228,-399r41,0r205,359r202,-359r42,0xm182,-922r192,96r-15,27r-193,-92","w":540},"\u0176":{"d":"289,-301r0,301r-36,0r0,-301r-228,-399r41,0r205,359r202,-359r42,0xm122,-804r134,-125r30,0r134,125r-45,0r-104,-96r-103,96r-46,0","w":540},"\u0179":{"d":"60,-666r0,-34r450,0r0,70r-413,575r0,22r413,0r0,34r-450,0r0,-69r413,-574r0,-24r-413,0xm181,-826r192,-96r16,31r-193,92","w":570},"\u017b":{"d":"60,-666r0,-34r450,0r0,70r-413,575r0,22r413,0r0,34r-450,0r0,-69r413,-574r0,-24r-413,0xm267,-845r0,-55r35,0r0,55r-35,0","w":570},"\u014a":{"d":"103,0r0,-700r85,0r333,666r27,0r0,-666r36,0r1,695v0,178,-54,178,-174,178r0,-34v113,0,135,0,137,-139r-49,0r-334,-666r-26,0r0,666r-36,0","w":687},"\u0101":{"d":"418,-353r0,287v3,29,41,39,75,42r-2,32v-43,0,-81,-9,-103,-40v0,0,-93,41,-206,41v-78,0,-127,-49,-127,-146v0,-85,39,-134,138,-144r190,-20r0,-52v0,-87,-38,-122,-111,-122v-73,0,-189,17,-189,17r-3,-33v0,0,112,-18,192,-18v101,0,146,53,146,156xm383,-268r-186,18v-78,8,-105,51,-105,113v0,73,35,114,91,114v99,0,200,-40,200,-40r0,-205xm122,-642r0,-32r267,0r0,32r-267,0","w":518},"\u0103":{"d":"418,-353r0,287v3,29,41,39,75,42r-2,32v-43,0,-81,-9,-103,-40v0,0,-93,41,-206,41v-78,0,-127,-49,-127,-146v0,-85,39,-134,138,-144r190,-20r0,-52v0,-87,-38,-122,-111,-122v-73,0,-189,17,-189,17r-3,-33v0,0,112,-18,192,-18v101,0,146,53,146,156xm383,-268r-186,18v-78,8,-105,51,-105,113v0,73,35,114,91,114v99,0,200,-40,200,-40r0,-205xm121,-723r35,0v0,55,38,96,103,96v65,0,103,-41,103,-96r35,0v0,74,-54,128,-138,128v-84,0,-138,-54,-138,-128","w":518},"\u01fb":{"d":"418,-353r0,287v3,29,41,39,75,42r-2,32v-43,0,-81,-9,-103,-40v0,0,-93,41,-206,41v-78,0,-127,-49,-127,-146v0,-85,39,-134,138,-144r190,-20r0,-52v0,-87,-38,-122,-111,-122v-73,0,-189,17,-189,17r-3,-33v0,0,112,-18,192,-18v101,0,146,53,146,156xm383,-268r-186,18v-78,8,-105,51,-105,113v0,73,35,114,91,114v99,0,200,-40,200,-40r0,-205xm153,-650v0,-53,42,-95,96,-95v53,0,94,42,94,95v0,54,-41,95,-94,95v-54,0,-96,-41,-96,-95xm187,-650v0,35,27,64,62,64v34,0,61,-29,61,-64v0,-34,-27,-63,-61,-63v-35,0,-62,29,-62,63xm155,-806r192,-96r16,31r-193,92","w":518},"\u0105":{"d":"489,159r4,33v0,0,-36,8,-64,8v-46,0,-80,-31,-80,-82v0,-41,69,-110,79,-120v-16,-6,-30,-15,-40,-30v0,0,-93,41,-206,41v-78,0,-127,-49,-127,-146v0,-85,39,-134,138,-144r190,-20r0,-52v0,-87,-38,-122,-111,-122v-73,0,-189,17,-189,17r-3,-33v0,0,112,-18,192,-18v101,0,146,53,146,156r0,287v3,29,41,39,75,42r-2,32v-11,0,-21,-1,-31,-2v-17,19,-74,83,-74,110v0,27,19,50,47,50v19,0,56,-7,56,-7xm383,-268r-186,18v-78,8,-105,51,-105,113v0,73,35,114,91,114v99,0,200,-40,200,-40r0,-205","w":518},"\u01fd":{"d":"570,-23v70,0,182,-9,182,-9r2,32v0,0,-112,9,-185,9v-69,0,-115,-22,-143,-58v-59,23,-80,58,-244,58v-82,0,-127,-48,-127,-146v0,-112,52,-135,185,-149r143,-15r0,-52v0,-88,-39,-122,-111,-122v-74,0,-188,9,-188,9r-2,-33v0,0,110,-10,190,-10v78,0,123,32,139,96v36,-71,98,-96,172,-96v133,0,198,91,190,273r-355,0v0,138,36,213,152,213xm183,-23v93,0,211,-44,228,-51v-24,-47,-30,-112,-30,-194r-184,18v-74,7,-105,41,-105,113v0,74,35,114,91,114xm418,-268r318,0v0,-153,-49,-209,-153,-209v-100,0,-165,58,-165,209xm320,-636r192,-96r16,31r-193,92","w":828},"\u0107":{"d":"265,-509v38,0,120,10,120,10r-2,32v0,0,-80,-10,-118,-10v-128,0,-168,58,-168,216v0,172,26,238,168,238v38,0,120,-9,120,-9r2,32v0,0,-84,9,-122,9v-167,0,-205,-69,-205,-270v0,-185,56,-248,205,-248xm137,-636r192,-96r16,31r-193,92","w":437},"\u0109":{"d":"265,-509v38,0,120,10,120,10r-2,32v0,0,-80,-10,-118,-10v-128,0,-168,58,-168,216v0,172,26,238,168,238v38,0,120,-9,120,-9r2,32v0,0,-84,9,-122,9v-167,0,-205,-69,-205,-270v0,-185,56,-248,205,-248xm103,-600r121,-132r28,0r122,132r-43,0r-92,-100r-93,100r-43,0","w":437},"\u010d":{"d":"265,-509v38,0,120,10,120,10r-2,32v0,0,-80,-10,-118,-10v-128,0,-168,58,-168,216v0,172,26,238,168,238v38,0,120,-9,120,-9r2,32v0,0,-84,9,-122,9v-167,0,-205,-69,-205,-270v0,-185,56,-248,205,-248xm224,-600r-121,-132r42,0r94,99r93,-99r42,0r-122,132r-28,0","w":437},"\u010b":{"d":"265,-509v38,0,120,10,120,10r-2,32v0,0,-80,-10,-118,-10v-128,0,-168,58,-168,216v0,172,26,238,168,238v38,0,120,-9,120,-9r2,32v0,0,-84,9,-122,9v-167,0,-205,-69,-205,-270v0,-185,56,-248,205,-248xm221,-645r0,-55r35,0r0,55r-35,0","w":437},"\u010f":{"d":"437,-700r0,700r-35,0r0,-42v0,0,-82,51,-173,51v-62,0,-169,-9,-169,-252v0,-172,46,-266,210,-266v47,0,107,8,132,12r0,-203r35,0xm229,-23v86,0,173,-52,173,-52r0,-390v-26,-3,-93,-12,-132,-12v-142,0,-175,85,-175,237v0,199,78,217,134,217xm622,-700r0,217r-34,0r0,-217r34,0","w":708},"\u0111":{"d":"229,-622r0,-32r173,0r0,-46r35,0r0,46r59,0r0,32r-59,0r0,622r-35,0r0,-42v0,0,-82,51,-173,51v-62,0,-169,-9,-169,-252v0,-172,46,-266,210,-266v47,0,107,8,132,12r0,-125r-173,0xm229,-23v86,0,173,-52,173,-52r0,-390v-26,-3,-93,-12,-132,-12v-142,0,-175,85,-175,237v0,199,78,217,134,217","w":538},"\u011b":{"d":"249,-23v70,0,182,-9,182,-9r2,32v0,0,-112,9,-185,9v-149,-1,-188,-96,-188,-259v0,-198,88,-259,202,-259v133,0,198,91,190,273r-355,0v0,138,36,213,152,213xm97,-268r318,0v0,-153,-49,-209,-153,-209v-100,0,-165,57,-165,209xm239,-600r-121,-132r42,0r94,99r93,-99r42,0r-122,132r-28,0","w":507},"\u0113":{"d":"249,-23v70,0,182,-9,182,-9r2,32v0,0,-112,9,-185,9v-149,-1,-188,-96,-188,-259v0,-198,88,-259,202,-259v133,0,198,91,190,273r-355,0v0,138,36,213,152,213xm97,-268r318,0v0,-153,-49,-209,-153,-209v-100,0,-165,57,-165,209xm130,-642r0,-32r267,0r0,32r-267,0","w":507},"\u0115":{"d":"249,-23v70,0,182,-9,182,-9r2,32v0,0,-112,9,-185,9v-149,-1,-188,-96,-188,-259v0,-198,88,-259,202,-259v133,0,198,91,190,273r-355,0v0,138,36,213,152,213xm97,-268r318,0v0,-153,-49,-209,-153,-209v-100,0,-165,57,-165,209xm124,-723r35,0v0,55,38,96,103,96v65,0,103,-41,103,-96r35,0v0,74,-54,128,-138,128v-84,0,-138,-54,-138,-128","w":507},"\u0117":{"d":"249,-23v70,0,182,-9,182,-9r2,32v0,0,-112,9,-185,9v-149,-1,-188,-96,-188,-259v0,-198,88,-259,202,-259v133,0,198,91,190,273r-355,0v0,138,36,213,152,213xm97,-268r318,0v0,-153,-49,-209,-153,-209v-100,0,-165,57,-165,209xm236,-645r0,-55r35,0r0,55r-35,0","w":507},"\u0119":{"d":"443,159r4,33v0,0,-36,8,-64,8v-46,0,-80,-31,-80,-82v0,-36,53,-94,73,-114v-39,2,-88,5,-128,5v-149,-1,-188,-96,-188,-259v0,-198,88,-259,202,-259v133,0,198,91,190,273r-355,0v0,138,36,213,152,213v70,0,182,-9,182,-9r2,32v0,0,-7,0,-14,1v-9,9,-79,85,-79,115v0,27,19,50,47,50v19,0,56,-7,56,-7xm97,-268r318,0v0,-153,-49,-209,-153,-209v-100,0,-165,57,-165,209","w":507},"\u011d":{"d":"253,239v-166,0,-198,-41,-198,-159v0,-66,31,-89,85,-128v-16,-10,-22,-34,-22,-65v0,-15,30,-78,30,-78v-46,-15,-86,-55,-86,-152v0,-119,64,-167,171,-167v54,0,106,13,106,13r140,-3r0,35r-108,0v25,23,40,53,40,122v0,146,-94,176,-236,160v0,0,-23,57,-23,70v0,49,6,54,137,54v124,0,177,20,177,144v0,108,-64,154,-213,154xm287,-27v-41,0,-121,-3,-121,-3v-58,40,-75,61,-75,109v0,95,25,128,163,128v124,0,175,-36,175,-122v0,-101,-41,-112,-142,-112xm229,-211v104,0,145,-32,145,-132v0,-113,-37,-135,-142,-135v-88,0,-134,32,-134,135v0,90,30,132,131,132xm117,-600r121,-132r28,0r122,132r-43,0r-92,-100r-93,100r-43,0","w":504},"\u011f":{"d":"253,239v-166,0,-198,-41,-198,-159v0,-66,31,-89,85,-128v-16,-10,-22,-34,-22,-65v0,-15,30,-78,30,-78v-46,-15,-86,-55,-86,-152v0,-119,64,-167,171,-167v54,0,106,13,106,13r140,-3r0,35r-108,0v25,23,40,53,40,122v0,146,-94,176,-236,160v0,0,-23,57,-23,70v0,49,6,54,137,54v124,0,177,20,177,144v0,108,-64,154,-213,154xm287,-27v-41,0,-121,-3,-121,-3v-58,40,-75,61,-75,109v0,95,25,128,163,128v124,0,175,-36,175,-122v0,-101,-41,-112,-142,-112xm229,-211v104,0,145,-32,145,-132v0,-113,-37,-135,-142,-135v-88,0,-134,32,-134,135v0,90,30,132,131,132xm114,-723r35,0v0,55,38,96,103,96v65,0,103,-41,103,-96r35,0v0,74,-54,128,-138,128v-84,0,-138,-54,-138,-128","w":504},"\u0121":{"d":"253,239v-166,0,-198,-41,-198,-159v0,-66,31,-89,85,-128v-16,-10,-22,-34,-22,-65v0,-15,30,-78,30,-78v-46,-15,-86,-55,-86,-152v0,-119,64,-167,171,-167v54,0,106,13,106,13r140,-3r0,35r-108,0v25,23,40,53,40,122v0,146,-94,176,-236,160v0,0,-23,57,-23,70v0,49,6,54,137,54v124,0,177,20,177,144v0,108,-64,154,-213,154xm287,-27v-41,0,-121,-3,-121,-3v-58,40,-75,61,-75,109v0,95,25,128,163,128v124,0,175,-36,175,-122v0,-101,-41,-112,-142,-112xm229,-211v104,0,145,-32,145,-132v0,-113,-37,-135,-142,-135v-88,0,-134,32,-134,135v0,90,30,132,131,132xm234,-645r0,-55r35,0r0,55r-35,0","w":504},"\u0123":{"d":"253,239v-166,0,-198,-41,-198,-159v0,-66,31,-89,85,-128v-16,-10,-22,-34,-22,-65v0,-15,30,-78,30,-78v-46,-15,-86,-55,-86,-152v0,-119,64,-167,171,-167v54,0,106,13,106,13r140,-3r0,35r-108,0v25,23,40,53,40,122v0,146,-94,176,-236,160v0,0,-23,57,-23,70v0,49,6,54,137,54v124,0,177,20,177,144v0,108,-64,154,-213,154xm287,-27v-41,0,-121,-3,-121,-3v-58,40,-75,61,-75,109v0,95,25,128,163,128v124,0,175,-36,175,-122v0,-101,-41,-112,-142,-112xm229,-211v104,0,145,-32,145,-132v0,-113,-37,-135,-142,-135v-88,0,-134,32,-134,135v0,90,30,132,131,132xm278,-782r-38,189r-36,0r46,-189r28,0","w":504},"\u0125":{"d":"136,0r-35,0r0,-750r35,0r0,280v0,0,88,-39,174,-39v136,0,164,55,164,249r0,260r-35,0r0,-258v0,-170,-18,-219,-129,-219v-89,0,-174,40,-174,40r0,437xm148,-790r121,-132r28,0r122,132r-43,0r-92,-100r-93,100r-43,0","w":567},"\u0127":{"d":"30,-612r0,-32r71,0r0,-106r35,0r0,106r161,0r0,32r-161,0r0,142v0,0,88,-39,174,-39v136,0,164,55,164,249r0,260r-35,0r0,-258v0,-170,-18,-219,-129,-219v-89,0,-174,40,-174,40r0,437r-35,0r0,-612r-71,0","w":567},"\u0129":{"d":"113,0r0,-500r35,0r0,500r-35,0xm272,-703r9,30v0,0,-42,43,-73,43v-40,0,-115,-54,-147,-54v-21,0,-70,45,-70,45r-10,-29v0,0,49,-47,82,-47v40,0,115,53,147,53v18,0,62,-41,62,-41","w":261},"\u012b":{"d":"113,0r0,-500r35,0r0,500r-35,0xm-3,-642r0,-32r267,0r0,32r-267,0","w":261},"\u012d":{"d":"113,0r0,-500r35,0r0,500r-35,0xm-7,-723r35,0v0,55,38,96,103,96v65,0,103,-41,103,-96r35,0v0,74,-54,128,-138,128v-84,0,-138,-54,-138,-128","w":261},"\u012f":{"d":"147,159r4,33v0,0,-36,8,-64,8v-46,0,-80,-31,-80,-82v0,-43,79,-120,82,-123r0,-495r35,0r1,499v0,0,-81,85,-81,117v0,27,19,50,47,50v19,0,56,-7,56,-7xm89,-645r0,-55r35,0r0,55r-35,0","w":215},"\u0135":{"d":"108,-6r0,-494r35,0r0,495v0,112,-30,157,-159,223r-14,-31v114,-62,138,-95,138,-193xm-15,-600r121,-132r28,0r122,132r-43,0r-92,-100r-93,100r-43,0","w":233},"\u0137":{"d":"136,0r-35,0r0,-730r35,0r0,438r94,0r182,-208r41,0r-192,226r192,274r-41,0r-182,-257r-94,0r0,257xm195,267r38,-189r36,0r-46,189r-28,0","w":483},"\u013a":{"d":"95,0r0,-730r35,0r0,730r-35,0xm9,-836r192,-96r16,31r-193,92","w":225},"\u013e":{"d":"95,0r0,-730r35,0r0,730r-35,0xm309,-700r0,217r-34,0r0,-217r34,0","w":395},"\u013c":{"d":"95,0r0,-730r35,0r0,730r-35,0xm54,267r38,-189r36,0r-46,189r-28,0","w":225},"\u0144":{"d":"136,0r-35,0r0,-500r35,0r0,40v0,0,89,-49,175,-49v136,0,164,55,164,249r0,260r-35,0r0,-258v0,-170,-18,-219,-129,-219v-89,0,-175,50,-175,50r0,427xm182,-636r192,-96r16,31r-193,92","w":573},"\u0148":{"d":"136,0r-35,0r0,-500r35,0r0,40v0,0,89,-49,175,-49v136,0,164,55,164,249r0,260r-35,0r0,-258v0,-170,-18,-219,-129,-219v-89,0,-175,50,-175,50r0,427xm272,-600r-121,-132r42,0r94,99r93,-99r42,0r-122,132r-28,0","w":573},"\u0146":{"d":"136,0r-35,0r0,-500r35,0r0,40v0,0,89,-49,175,-49v136,0,164,55,164,249r0,260r-35,0r0,-258v0,-170,-18,-219,-129,-219v-89,0,-175,50,-175,50r0,427xm241,267r38,-189r36,0r-46,189r-28,0","w":573},"\u014d":{"d":"265,-509v135,0,201,68,201,250v0,187,-36,268,-201,268v-166,0,-205,-69,-205,-270v0,-185,57,-248,205,-248xm265,-23v147,0,164,-77,164,-236v0,-160,-53,-218,-164,-218v-128,0,-168,48,-168,216v0,172,21,238,168,238xm129,-642r0,-32r267,0r0,32r-267,0","w":526},"\u014f":{"d":"265,-509v135,0,201,68,201,250v0,187,-36,268,-201,268v-166,0,-205,-69,-205,-270v0,-185,57,-248,205,-248xm265,-23v147,0,164,-77,164,-236v0,-160,-53,-218,-164,-218v-128,0,-168,48,-168,216v0,172,21,238,168,238xm125,-723r35,0v0,55,38,96,103,96v65,0,103,-41,103,-96r35,0v0,74,-54,128,-138,128v-84,0,-138,-54,-138,-128","w":526},"\u0151":{"d":"265,-509v135,0,201,68,201,250v0,187,-36,268,-201,268v-166,0,-205,-69,-205,-270v0,-185,57,-248,205,-248xm265,-23v147,0,164,-77,164,-236v0,-160,-53,-218,-164,-218v-128,0,-168,48,-168,216v0,172,21,238,168,238xm305,-622r163,-104r18,27r-163,104xm120,-622r163,-104r18,27r-163,104","w":526},"\u0155":{"d":"101,0r0,-500r35,0r0,78v0,0,88,-67,198,-88r0,34v-98,19,-198,87,-198,87r0,389r-35,0xm93,-636r192,-96r16,31r-193,92","w":354},"\u0157":{"d":"101,0r0,-500r35,0r0,78v0,0,88,-67,198,-88r0,34v-98,19,-198,87,-198,87r0,389r-35,0xm61,267r38,-189r36,0r-46,189r-28,0","w":354},"\u0159":{"d":"101,0r0,-500r35,0r0,78v0,0,88,-67,198,-88r0,34v-98,19,-198,87,-198,87r0,389r-35,0xm183,-600r-121,-132r42,0r94,99r93,-99r42,0r-122,132r-28,0","w":354},"\u015b":{"d":"403,-494r-2,33v0,0,-102,-16,-170,-16v-64,0,-134,19,-134,100v0,62,27,81,142,99v131,21,182,40,182,134v0,117,-72,153,-190,153v-57,0,-165,-16,-165,-16r4,-33v0,0,108,17,159,17v94,0,155,-22,155,-118v0,-72,-36,-86,-155,-104v-117,-18,-169,-37,-169,-130v0,-106,90,-134,171,-134v77,0,172,15,172,15xm138,-636r192,-96r16,31r-193,92","w":483},"\u015d":{"d":"403,-494r-2,33v0,0,-102,-16,-170,-16v-64,0,-134,19,-134,100v0,62,27,81,142,99v131,21,182,40,182,134v0,117,-72,153,-190,153v-57,0,-165,-16,-165,-16r4,-33v0,0,108,17,159,17v94,0,155,-22,155,-118v0,-72,-36,-86,-155,-104v-117,-18,-169,-37,-169,-130v0,-106,90,-134,171,-134v77,0,172,15,172,15xm106,-600r121,-132r28,0r122,132r-43,0r-92,-100r-93,100r-43,0","w":483},"\u015f":{"d":"351,127v0,53,-34,74,-82,74v-44,0,-81,-4,-81,-4r2,-28v0,0,44,4,78,4v29,0,48,-11,48,-46v0,-52,-54,-41,-102,-42r0,-77v-59,-2,-148,-15,-148,-15r4,-33v0,0,108,17,159,17v94,0,155,-22,155,-118v0,-72,-36,-86,-155,-104v-117,-18,-169,-37,-169,-130v0,-106,90,-134,171,-134v77,0,172,15,172,15r-2,33v0,0,-102,-16,-170,-16v-64,0,-134,19,-134,100v0,62,27,81,142,99v131,21,182,40,182,134v0,112,-66,150,-174,153r0,48v71,0,104,14,104,70","w":483},"\u0219":{"d":"403,-494r-2,33v0,0,-102,-16,-170,-16v-64,0,-134,19,-134,100v0,62,27,81,142,99v131,21,182,40,182,134v0,117,-72,153,-190,153v-57,0,-165,-16,-165,-16r4,-33v0,0,108,17,159,17v94,0,155,-22,155,-118v0,-72,-36,-86,-155,-104v-117,-18,-169,-37,-169,-130v0,-106,90,-134,171,-134v77,0,172,15,172,15xm202,267r38,-189r36,0r-46,189r-28,0","w":483},"\u0165":{"d":"331,-468r-182,0r0,262v0,149,11,184,92,184v28,0,98,-8,98,-8r3,32v0,0,-66,8,-101,8v-91,0,-127,-34,-127,-178r0,-300r-79,0r0,-32r79,0r0,-163r35,0r0,163r182,0r0,32xm456,-700r0,217r-34,0r0,-217r34,0","w":542},"\u0163":{"d":"331,-468r-182,0r0,262v0,149,11,184,92,184v28,0,98,-8,98,-8r3,32v0,0,-66,8,-101,8v-91,0,-127,-34,-127,-178r0,-300r-79,0r0,-32r79,0r0,-163r35,0r0,163r182,0r0,32xm148,267r38,-189r36,0r-46,189r-28,0","w":372},"\u0167":{"d":"331,-468r-182,0r0,184r-35,0r0,-184r-79,0r0,-32r79,0r0,-163r35,0r0,163r182,0r0,32xm241,-22v28,0,98,-8,98,-8r3,32v0,0,-66,8,-101,8v-91,0,-127,-34,-127,-178r0,-84r35,0r0,46v0,149,11,184,92,184xm310,-252r-161,0r0,-32r161,0r0,32xm43,-252r0,-32r71,0r0,32r-71,0","w":372},"\u0169":{"d":"421,-500r35,0r0,500r-35,0r0,-40v0,0,-78,49,-164,49v-136,0,-164,-55,-164,-249r0,-260r35,0r0,258v0,170,18,219,129,219v89,0,164,-50,164,-50r0,-427xm420,-703r9,30v0,0,-42,43,-73,43v-40,0,-115,-54,-147,-54v-21,0,-70,45,-70,45r-10,-29v0,0,49,-47,82,-47v40,0,115,53,147,53v18,0,62,-41,62,-41","w":557},"\u016b":{"d":"421,-500r35,0r0,500r-35,0r0,-40v0,0,-78,49,-164,49v-136,0,-164,-55,-164,-249r0,-260r35,0r0,258v0,170,18,219,129,219v89,0,164,-50,164,-50r0,-427xm145,-642r0,-32r267,0r0,32r-267,0","w":557},"\u016d":{"d":"421,-500r35,0r0,500r-35,0r0,-40v0,0,-78,49,-164,49v-136,0,-164,-55,-164,-249r0,-260r35,0r0,258v0,170,18,219,129,219v89,0,164,-50,164,-50r0,-427xm140,-723r35,0v0,55,38,96,103,96v65,0,103,-41,103,-96r35,0v0,74,-54,128,-138,128v-84,0,-138,-54,-138,-128","w":557},"\u016f":{"d":"421,-500r35,0r0,500r-35,0r0,-40v0,0,-78,49,-164,49v-136,0,-164,-55,-164,-249r0,-260r35,0r0,258v0,170,18,219,129,219v89,0,164,-50,164,-50r0,-427xm191,-650v0,-53,42,-95,96,-95v53,0,94,42,94,95v0,54,-41,95,-94,95v-54,0,-96,-41,-96,-95xm225,-650v0,35,27,64,62,64v34,0,61,-29,61,-64v0,-34,-27,-63,-61,-63v-35,0,-62,29,-62,63","w":557},"\u0171":{"d":"421,-500r35,0r0,500r-35,0r0,-40v0,0,-78,49,-164,49v-136,0,-164,-55,-164,-249r0,-260r35,0r0,258v0,170,18,219,129,219v89,0,164,-50,164,-50r0,-427xm321,-622r163,-104r18,27r-163,104xm136,-622r163,-104r18,27r-163,104","w":557},"\u0173":{"d":"421,-500r35,0r0,499v-11,-1,-25,-6,-35,-4r0,-35v0,0,-78,49,-164,49v-136,0,-164,-55,-164,-249r0,-260r35,0r0,258v0,170,18,219,129,219v89,0,164,-50,164,-50r0,-427xm479,159r4,33v0,0,-36,8,-64,8v-46,0,-80,-31,-80,-82v0,-43,79,-120,82,-123r0,5r35,0v-5,4,-80,85,-80,116v0,27,19,50,47,50v19,0,56,-7,56,-7xm456,-1r0,1r0,-1","w":557},"\u1e81":{"d":"38,-500r37,0r127,468r11,0r148,-458r39,0r147,458r11,0r128,-468r37,0r-137,500r-68,0r-138,-448r-139,448r-68,0xm292,-732r192,96r-15,27r-193,-92","w":761},"\u1e83":{"d":"38,-500r37,0r127,468r11,0r148,-458r39,0r147,458r11,0r128,-468r37,0r-137,500r-68,0r-138,-448r-139,448r-68,0xm276,-636r192,-96r16,31r-193,92","w":761},"\u0175":{"d":"38,-500r37,0r127,468r11,0r148,-458r39,0r147,458r11,0r128,-468r37,0r-137,500r-68,0r-138,-448r-139,448r-68,0xm245,-600r121,-132r28,0r122,132r-43,0r-92,-100r-93,100r-43,0","w":761},"\u1e85":{"d":"38,-500r37,0r127,468r11,0r148,-458r39,0r147,458r11,0r128,-468r37,0r-137,500r-68,0r-138,-448r-139,448r-68,0xm268,-638r0,-62r35,0r0,62r-35,0xm458,-638r0,-62r35,0r0,62r-35,0","w":761},"\u1ef3":{"d":"35,-500r37,0r147,468r41,0r148,-468r37,0r-229,730r-37,0r72,-230r-61,0xm151,-732r192,96r-15,27r-193,-92","w":480},"\u0177":{"d":"35,-500r37,0r147,468r41,0r148,-468r37,0r-229,730r-37,0r72,-230r-61,0xm105,-600r121,-132r28,0r122,132r-43,0r-92,-100r-93,100r-43,0","w":480},"\u017a":{"d":"55,-468r0,-32r371,0r0,32r-328,436r328,0r0,32r-371,0r0,-32r328,-436r-328,0xm137,-636r192,-96r16,31r-193,92","w":481},"\u017c":{"d":"55,-468r0,-32r371,0r0,32r-328,436r328,0r0,32r-371,0r0,-32r328,-436r-328,0xm223,-645r0,-55r35,0r0,55r-35,0","w":481},"\u014b":{"d":"136,0r-35,0r0,-500r35,0r0,40v0,0,90,-49,176,-49v136,0,164,65,164,249r0,267v0,115,-30,154,-149,223r-14,-31v104,-62,128,-95,128,-193r0,-264v0,-160,-18,-219,-129,-219v-89,0,-176,50,-176,50r0,427","w":573},"\u1ef9":{"d":"35,-500r37,0r147,468r41,0r148,-468r37,0r-229,730r-37,0r72,-230r-61,0xm374,-703r9,30v0,0,-42,43,-73,43v-40,0,-115,-54,-147,-54v-21,0,-70,45,-70,45r-10,-29v0,0,49,-47,82,-47v40,0,115,53,147,53v18,0,62,-41,62,-41","w":480},"\u1eb0":{"d":"35,0r215,-700r106,0r213,698r-36,0r-67,-213r-328,0r-67,215r-36,0xm275,-666r-127,417r308,0r-127,-417r-54,0xm160,-894r35,0v0,55,48,87,103,87v55,0,103,-32,103,-87r35,0v0,74,-64,119,-138,119v-74,0,-138,-45,-138,-119xm154,-1062r192,96r-15,27r-193,-92","w":604},"\u1ef8":{"d":"289,-301r0,301r-36,0r0,-301r-228,-399r41,0r205,359r202,-359r42,0xm405,-903r9,30v0,0,-42,43,-73,43v-40,0,-115,-54,-147,-54v-21,0,-70,45,-70,45r-10,-29v0,0,49,-47,82,-47v40,0,115,53,147,53v18,0,62,-41,62,-41","w":540},"\u1ec5":{"d":"249,-23v70,0,182,-9,182,-9r2,32v0,0,-112,9,-185,9v-149,-1,-188,-96,-188,-259v0,-198,88,-259,202,-259v133,0,198,91,190,273r-355,0v0,138,36,213,152,213xm97,-268r318,0v0,-153,-49,-209,-153,-209v-100,0,-165,57,-165,209xm120,-570r121,-132r28,0r122,132r-43,0r-92,-100r-93,100r-43,0xm393,-803r9,30v0,0,-42,43,-73,43v-40,0,-115,-54,-147,-54v-21,0,-70,45,-70,45r-10,-29v0,0,49,-47,82,-47v40,0,115,53,147,53v18,0,62,-41,62,-41","w":507},"\u1ed7":{"d":"265,-509v135,0,201,68,201,250v0,187,-36,268,-201,268v-166,0,-205,-69,-205,-270v0,-185,57,-248,205,-248xm265,-23v147,0,164,-77,164,-236v0,-160,-53,-218,-164,-218v-128,0,-168,48,-168,216v0,172,21,238,168,238xm118,-570r121,-132r28,0r122,132r-43,0r-92,-100r-93,100r-43,0xm382,-803r9,30v0,0,-42,43,-73,43v-40,0,-115,-54,-147,-54v-21,0,-70,45,-70,45r-10,-29v0,0,49,-47,82,-47v40,0,115,53,147,53v18,0,62,-41,62,-41","w":536},"\u1eab":{"d":"418,-353r0,287v3,29,41,39,75,42r-2,32v-43,0,-81,-9,-103,-40v0,0,-93,41,-206,41v-78,0,-127,-49,-127,-146v0,-85,39,-134,138,-144r190,-20r0,-52v0,-87,-38,-122,-111,-122v-73,0,-189,17,-189,17r-3,-33v0,0,112,-18,192,-18v101,0,146,53,146,156xm383,-268r-186,18v-78,8,-105,51,-105,113v0,73,35,114,91,114v99,0,200,-40,200,-40r0,-205xm108,-570r121,-132r28,0r122,132r-43,0r-92,-100r-93,100r-43,0xm372,-803r9,30v0,0,-42,43,-73,43v-40,0,-115,-54,-147,-54v-21,0,-70,45,-70,45r-10,-29v0,0,49,-47,82,-47v40,0,115,53,147,53v18,0,62,-41,62,-41","w":536},"\u0110":{"d":"26,-334r0,-34r77,0r0,-332r260,0v176,0,234,164,234,340v0,176,-58,360,-234,360r-260,0r0,-334r-77,0xm559,-360v0,-150,-46,-306,-196,-306r-224,0r0,298r177,0r0,34r-177,0r0,300r224,0v150,0,196,-176,196,-326","w":653},"\/":{"d":"109,-12r277,-690r33,14r-277,689"},"\u00a0":{"w":235}}});
/*!
 * The following copyright notice may not be removed under any circumstances.
 * 
 * Copyright:
 * Generated in 2010 by FontLab Studio. Copyright info pending.
 * 
 * Full name:
 * TitilliumText22L Light
 * 
 * Manufacturer:
 * Campivisivi
 * 
 * Designer:
 * Campivisivi
 * 
 * License information:
 * http://scripts.sil.org/OFL
 */
Cufon.registerFont({"w":530,"face":{"font-family":"TitilliumText22L-Light","font-weight":300,"font-stretch":"normal","units-per-em":"1000","panose-1":"0 0 0 0 0 0 0 0 0 0","ascent":"750","descent":"-250","x-height":"10","bbox":"-91 -1081 930 278","underline-thickness":"50","underline-position":"-50","unicode-range":"U+0020-U+20AC"},"glyphs":{" ":{"w":235},"C":{"d":"490,-68r3,56v0,0,-109,22,-188,22v-207,0,-252,-130,-252,-356v0,-229,44,-361,252,-361v93,0,189,21,189,21r-4,57v0,0,-106,-19,-180,-19v-167,0,-193,107,-193,302v0,192,27,296,194,296v66,0,179,-18,179,-18","w":536},"c":{"d":"260,-509v43,0,130,12,130,12r-2,53v0,0,-80,-9,-118,-9v-120,0,-155,51,-155,194v0,155,25,213,155,213v38,0,119,-9,119,-9r3,53v0,0,-90,12,-133,12v-162,0,-205,-72,-205,-269v0,-183,57,-250,206,-250","w":437},"d":{"d":"449,-700r0,700r-60,0r0,-36v0,0,-79,46,-160,46v-84,0,-175,-30,-175,-256v0,-174,52,-263,209,-263v44,0,107,9,126,12r0,-203r60,0xm235,-45v74,0,154,-43,154,-43r0,-356v-20,-2,-84,-11,-124,-11v-119,0,-151,73,-151,211v0,175,63,199,121,199","w":541},"e":{"d":"254,-45v73,0,183,-9,183,-9r2,50v0,0,-113,14,-191,14v-149,-1,-194,-91,-194,-258v0,-193,84,-261,206,-261v145,0,211,104,195,284r-340,0v0,118,34,180,139,180xm115,-275r282,0v0,-132,-43,-181,-137,-181v-91,0,-145,51,-145,181","w":507},"f":{"d":"155,-445r0,445r-59,0r0,-445r-66,0r0,-55r66,0r0,-51v0,-144,36,-181,131,-181v35,0,98,6,98,6r-1,50v0,0,-59,-2,-88,-2v-60,0,-81,25,-81,128r0,50r152,0r0,55r-152,0","w":332},"g":{"d":"259,239v-161,0,-209,-37,-209,-156v0,-61,28,-87,81,-126v-17,-11,-25,-37,-25,-68v0,-17,32,-78,32,-78v-43,-18,-81,-57,-81,-151v0,-122,71,-170,180,-170v52,0,105,13,105,13r144,-3r0,53r-97,0v21,21,34,48,34,107v0,147,-97,179,-240,163v0,0,-20,49,-20,62v0,43,8,49,127,49v136,0,188,24,188,145v0,113,-75,160,-219,160xm286,-13v-38,0,-113,-4,-113,-4v-48,34,-63,53,-63,96v0,78,27,106,150,106v109,0,156,-30,156,-104v0,-85,-36,-94,-130,-94xm234,-225v91,0,128,-28,128,-115v0,-96,-33,-117,-126,-117v-79,0,-119,28,-119,117v0,78,27,115,117,115","w":512},"h":{"d":"152,0r-60,0r0,-737r60,0r0,263v0,0,85,-35,162,-35v137,0,167,63,167,249r0,260r-60,0r0,-259v0,-146,-16,-195,-114,-195v-75,0,-155,33,-155,33r0,421","w":565},"i":{"d":"84,0r0,-500r60,0r0,500r-60,0xm84,-625r0,-75r60,0r0,75r-60,0","w":228},"j":{"d":"98,-6r0,-494r60,0r0,495v0,119,-32,164,-164,231r-25,-51v106,-60,129,-88,129,-181xm98,-627r0,-75r60,0r0,75r-60,0","w":242},"k":{"d":"152,0r-60,0r0,-722r60,0r0,426r83,-3r162,-201r68,0r-176,229r178,271r-69,0r-162,-240r-84,3r0,237","w":492},"l":{"d":"88,0r0,-722r60,0r0,722r-60,0","w":236},"m":{"d":"152,0r-60,0r0,-500r60,0r0,36v0,0,67,-39,140,-43v66,-4,114,9,140,44v24,-9,111,-46,184,-46v136,0,167,61,167,249r0,260r-60,0r0,-245v0,-159,-13,-209,-114,-209v-75,0,-149,39,-152,41v24,96,10,286,14,413r-59,0r0,-258v0,-150,-16,-196,-115,-196v-75,0,-145,42,-145,42r0,412","w":868},"A":{"d":"31,0r200,-697r145,0r197,696r-62,0r-58,-189r-304,0r-56,190r-62,0xm276,-640r-112,391r275,0r-111,-391r-52,0","w":604},"p":{"d":"92,225r0,-725r60,0r0,38v0,0,78,-47,158,-47v125,0,178,77,178,253v0,192,-62,266,-216,266v-50,0,-103,-9,-120,-13r0,228r-60,0xm304,-455v-73,0,-152,45,-152,45r0,354v17,3,70,12,117,12v117,0,157,-59,157,-214v0,-145,-45,-197,-122,-197","w":541},"q":{"d":"246,10v-143,0,-192,-89,-192,-250v0,-180,53,-269,228,-269v50,0,163,9,163,9r0,725r-60,0r0,-247v0,0,-61,32,-139,32xm282,-455v-133,0,-167,70,-167,213v0,127,31,198,131,198v75,0,139,-35,139,-35r0,-371v0,0,-70,-5,-103,-5","w":537},"r":{"d":"92,0r0,-500r60,0r0,71v0,0,81,-62,183,-81r0,61v-95,19,-183,76,-183,76r0,373r-60,0","w":355},"s":{"d":"411,-492r-2,53v0,0,-108,-16,-173,-16v-63,0,-118,17,-118,85v0,52,25,68,130,84v131,21,180,45,180,141v0,117,-73,155,-193,155v-61,0,-172,-18,-172,-18r4,-53v0,0,112,17,163,17v87,0,137,-20,137,-98v0,-60,-30,-72,-137,-89v-120,-19,-173,-41,-173,-137v0,-109,89,-141,176,-141v76,0,178,17,178,17","w":486},"u":{"d":"406,-500r59,0r0,500r-59,0r0,-35v0,0,-78,45,-154,45v-139,0,-167,-61,-167,-249r0,-261r59,0r0,259v0,150,15,197,115,197v75,0,147,-42,147,-42r0,-414","w":558},"w":{"d":"31,-500r61,0r111,446r14,0r130,-436r64,0r129,436r15,0r111,-446r61,0r-126,500r-105,0r-118,-412r-118,412r-104,0","w":758},"y":{"d":"28,-500r61,0r133,443r36,0r134,-443r61,0r-216,725r-60,0r66,-225r-68,0","w":481},"z":{"d":"54,-446r0,-54r371,0r0,54r-298,392r298,0r0,54r-371,0r0,-54r299,-392r-299,0","w":480},"Z":{"d":"60,-639r0,-58r450,0r0,85r-378,534r0,20r378,0r0,59r-450,0r0,-85r378,-533r0,-22r-378,0","w":570},"0":{"d":"264,-670v153,0,237,75,237,352v0,253,-89,328,-236,328v-148,0,-238,-72,-238,-328v0,-277,88,-352,237,-352xm264,-612v-115,0,-171,59,-171,295v0,218,62,268,172,268v110,0,171,-51,171,-269v0,-233,-54,-294,-172,-294"},"1":{"d":"74,-522r207,-138r59,0r0,660r-61,0r0,-590r-176,117"},"2":{"d":"479,0r-421,0r0,-57r205,-213v78,-81,133,-139,133,-221v0,-89,-52,-120,-153,-120v-74,0,-173,24,-173,24r-6,-57v0,0,96,-26,189,-26v136,0,207,49,207,174v0,98,-47,155,-133,244r-186,193r338,0r0,59"},"3":{"d":"62,-647v0,0,100,-23,195,-23v152,0,206,53,206,169v0,111,-91,141,-104,149v70,23,122,54,122,166v0,131,-67,196,-213,196v-105,0,-218,-23,-218,-23r8,-57v0,0,107,21,205,21v106,-1,154,-46,154,-134v-1,-154,-139,-131,-280,-132r0,-57r133,0v52,0,129,-43,129,-124v0,-84,-41,-115,-144,-115v-93,0,-185,19,-185,19"},"5":{"d":"79,-660r380,0r0,59r-323,0r-18,230v0,0,81,-43,159,-43v129,0,210,52,210,195v0,152,-83,227,-220,227v-100,0,-215,-26,-215,-26r8,-56v0,0,115,24,205,24v95,0,158,-58,158,-167v0,-106,-64,-139,-151,-139v-82,0,-160,45,-160,45r-52,-9"},"7":{"d":"56,-601r0,-59r407,0r0,88r-260,583r-58,-19r254,-570r0,-23r-343,0"},"8":{"d":"268,-670v142,0,238,53,238,169v0,86,-38,124,-120,155v76,29,130,69,130,167v0,147,-111,189,-248,189v-132,0,-246,-42,-246,-178v0,-106,51,-143,122,-178v-72,-32,-111,-71,-111,-156v0,-114,91,-168,235,-168xm268,-49v105,0,183,-31,183,-134v0,-89,-59,-113,-132,-133r-110,0v-75,20,-120,56,-120,139v0,96,79,128,179,128xm268,-612v-105,0,-169,29,-169,116v0,69,37,102,110,125r110,0v77,-22,121,-56,121,-124v0,-86,-65,-117,-172,-117"},"E":{"d":"95,0r0,-697r416,0r0,58r-355,0r0,255r295,0r0,58r-295,0r0,268r355,0r0,58r-416,0","w":567},"F":{"d":"95,0r0,-697r417,0r0,58r-356,0r0,287r296,0r0,58r-296,0r0,294r-61,0","w":557},"G":{"d":"355,-295r0,-57r189,0r0,337v0,0,-142,25,-223,25v-209,0,-266,-132,-266,-357v0,-225,55,-360,265,-360v105,0,224,26,224,26r-3,56v0,0,-125,-23,-216,-23v-170,0,-206,107,-206,301v0,193,36,298,205,298v64,0,154,-16,159,-16r0,-230r-128,0","w":611},"H":{"d":"533,0r0,-322r-377,0r0,322r-61,0r0,-697r61,0r0,317r377,0r0,-317r61,0r0,697r-61,0","w":689},"K":{"d":"479,0r-202,-314r-121,2r0,312r-61,0r0,-697r61,0r0,326r119,-2r193,-324r72,0r-210,349r223,348r-74,0","w":596},"Q":{"d":"508,143r-88,-144v-27,7,-58,11,-94,11v-215,0,-271,-123,-271,-355v0,-229,57,-362,271,-362v214,0,272,131,272,362v0,167,-27,272,-117,322r85,138xm326,-49v173,0,208,-94,208,-296v0,-193,-39,-303,-208,-303v-170,0,-207,109,-207,303v0,195,35,296,207,296","w":653},"R":{"d":"505,0r-137,-273r-212,0r0,273r-61,0r0,-697r254,0v145,0,216,61,216,207v0,109,-38,178,-134,203r143,287r-69,0xm501,-490v0,-103,-48,-149,-152,-149r-193,0r0,308r193,0v116,0,152,-63,152,-159","w":626},"S":{"d":"472,-690r-5,57v0,0,-138,-17,-196,-17v-104,0,-161,36,-161,122v0,102,53,118,176,142v136,27,201,60,201,184v0,153,-81,210,-219,210v-76,0,-213,-19,-213,-19r6,-57v0,0,135,17,206,17v104,0,157,-41,157,-148v0,-87,-45,-108,-161,-130v-141,-26,-216,-57,-216,-197v0,-130,86,-183,224,-183v77,0,201,19,201,19","w":534},"T":{"d":"-3,-639r0,-58r500,0r0,58r-218,0r0,639r-61,0r0,-639r-221,0","w":495},"V":{"d":"493,-697r63,0r-185,697r-151,0r-189,-697r63,0r174,639r55,0","w":587},"N":{"d":"95,0r0,-697r118,0r297,628r24,0r0,-628r62,0r0,697r-117,0r-300,-628r-23,0r0,628r-61,0","w":690},"$":{"d":"464,-664r-5,55v0,0,-68,-9,-127,-14r-33,254v121,26,180,60,180,175v0,153,-84,206,-228,202r-15,115v0,0,-45,-3,-45,-7r14,-111v-68,-5,-142,-16,-142,-16r6,-54v0,0,77,10,143,14r35,-269v-126,-25,-192,-57,-192,-186v0,-132,97,-183,239,-175r15,-111r45,0r-15,114v63,5,125,14,125,14xm116,-508v0,89,42,110,139,130r32,-248v-105,-3,-171,30,-171,118xm418,-192v0,-75,-36,-99,-126,-119r-34,262v105,2,160,-37,160,-143"},"!":{"d":"237,0r0,-101r66,0r0,101r-66,0xm240,-225r-2,-474r64,0r-2,474r-60,0"},"a":{"d":"427,-349r0,261v3,31,32,41,65,45r-3,52v-54,0,-88,-10,-113,-38v0,0,-90,39,-192,39v-84,0,-133,-53,-133,-151v0,-92,45,-136,147,-146r170,-17v7,-89,-16,-148,-96,-148v-73,0,-190,15,-190,15r-4,-53v0,0,118,-19,196,-19v104,0,153,50,153,160xm368,-254r-163,15v-67,6,-92,42,-92,97v0,64,29,99,78,99v85,0,177,-34,177,-34r0,-177","w":520},"o":{"d":"265,-509v145,0,208,77,208,252v0,179,-41,267,-208,267v-168,0,-211,-79,-211,-268v0,-177,56,-251,211,-251xm265,-44v129,0,146,-70,146,-213v0,-143,-44,-198,-146,-198v-115,0,-150,48,-150,197v0,152,21,214,150,214","w":527},"J":{"d":"217,-698v0,212,1,377,1,591v0,170,-57,179,-184,179r0,-57v99,0,121,-4,121,-132r0,-581r62,0","w":306},"t":{"d":"331,-445r-167,0r0,243v0,125,8,157,79,157v28,0,93,-7,93,-7r3,53v0,0,-66,10,-101,10v-98,0,-134,-37,-134,-181r0,-275r-74,0r0,-55r74,0r0,-157r60,0r0,157r167,0r0,55","w":366},"n":{"d":"152,0r-60,0r0,-500r60,0r0,36v0,0,86,-45,162,-45v137,0,167,63,167,249r0,260r-59,0r0,-259v0,-146,-16,-195,-115,-195v-75,0,-155,42,-155,42r0,412","w":570},"#":{"d":"517,-184r-114,0r0,184r-56,0r0,-184r-167,0r0,184r-56,0r0,-184r-114,0r0,-52r114,0r0,-196r-114,0r0,-52r114,0r0,-183r56,0r0,183r167,0r0,-183r56,0r0,183r114,0r0,52r-114,0r0,196r114,0r0,52xm347,-236r0,-196r-167,0r0,196r167,0"},"W":{"d":"40,-697r62,0r133,636r33,0r142,-629r69,0r146,629r32,0r130,-636r62,0r-146,697r-123,0r-136,-604r-131,604r-123,0","w":889},"@":{"d":"504,-721v308,0,426,141,426,433v0,272,-68,298,-171,298v-57,0,-92,-6,-112,-58v-36,19,-115,57,-181,57v-77,0,-174,-24,-174,-252v0,-169,44,-266,205,-266v50,0,123,26,123,26r0,-17r59,0r0,200v0,245,13,255,80,255v68,0,109,-14,109,-243v0,-261,-93,-377,-364,-377v-262,0,-388,110,-388,404v0,310,120,406,388,406v40,0,143,-10,143,-10r3,57v0,0,-98,10,-146,10v-296,0,-449,-102,-449,-463v0,-333,158,-460,449,-460xm468,-48v60,0,126,-30,162,-49v-14,-67,-9,-232,-10,-333v0,0,-66,-23,-115,-23v-125,0,-153,71,-153,213v0,171,64,192,116,192","w":985},"`":{"d":"25,-743r208,95r-20,47r-210,-89","w":228},"\u0161":{"d":"411,-492r-2,53v0,0,-108,-16,-173,-16v-63,0,-118,17,-118,85v0,52,25,68,130,84v131,21,180,45,180,141v0,117,-73,155,-193,155v-61,0,-172,-18,-172,-18r4,-53v0,0,112,17,163,17v87,0,137,-20,137,-98v0,-60,-30,-72,-137,-89v-120,-19,-173,-41,-173,-137v0,-109,89,-141,176,-141v76,0,178,17,178,17xm226,-595r-123,-142r67,0r81,89r80,-89r68,0r-124,142r-49,0","w":486},"\u017e":{"d":"54,-446r0,-54r371,0r0,54r-298,392r298,0r0,54r-371,0r0,-54r299,-392r-299,0xm205,-595r-123,-142r67,0r81,89r80,-89r68,0r-124,142r-49,0","w":480},"M":{"d":"95,0r0,-697r112,0r218,607r219,-607r111,0r0,697r-61,0r0,-628r-14,0r-220,605r-72,0r-218,-605r-14,0r0,628r-61,0","w":850},"U":{"d":"144,-204v0,114,67,154,173,154v112,0,180,-39,180,-154r0,-493r61,0r0,493v0,155,-86,213,-241,213v-148,0,-235,-58,-235,-213r0,-493r62,0r0,493","w":641},"X":{"d":"104,-697r187,304r186,-304r70,0r-213,351r213,346r-70,0r-185,-301r-188,301r-70,0r216,-346r-216,-351r70,0","w":581},"Y":{"d":"306,-299r0,299r-62,0r0,-299r-223,-398r69,0r185,329r182,-329r69,0","w":548},"\u00f6":{"d":"265,-509v145,0,208,77,208,252v0,179,-41,267,-208,267v-168,0,-211,-79,-211,-268v0,-177,56,-251,211,-251xm265,-44v129,0,146,-70,146,-213v0,-143,-44,-198,-146,-198v-115,0,-150,48,-150,197v0,152,21,214,150,214xm132,-630r0,-79r59,0r0,79r-59,0xm329,-630r0,-79r58,0r0,79r-58,0","w":527},"\u00fc":{"d":"406,-500r59,0r0,500r-59,0r0,-35v0,0,-78,45,-154,45v-139,0,-167,-61,-167,-249r0,-261r59,0r0,259v0,150,15,197,115,197v75,0,147,-42,147,-42r0,-414xm157,-630r0,-79r58,0r0,79r-58,0xm353,-630r0,-79r58,0r0,79r-58,0","w":558},"\u0131":{"d":"101,0r0,-500r60,0r0,500r-60,0","w":261},"\u00dc":{"d":"145,-204v0,114,67,154,173,154v112,0,180,-39,180,-154r0,-493r62,0r0,493v0,155,-87,213,-242,213v-148,0,-234,-58,-234,-213r0,-493r61,0r0,493xm210,-830r0,-79r58,0r0,79r-58,0xm406,-830r0,-79r59,0r0,79r-59,0","w":642},"\u00d6":{"d":"328,-49v173,0,207,-94,207,-296v0,-193,-38,-303,-207,-303v-171,0,-208,109,-208,303v0,195,35,296,208,296xm328,10v-216,0,-272,-123,-272,-355v0,-229,58,-362,272,-362v214,0,271,131,271,362v0,239,-56,355,-271,355xm197,-830r0,-79r59,0r0,79r-59,0xm394,-830r0,-79r58,0r0,79r-58,0","w":656},"\u00c7":{"d":"424,127v0,59,-36,84,-89,84v-44,0,-84,-6,-84,-6r2,-40v0,0,41,3,71,3v28,0,45,-10,45,-41v0,-44,-49,-37,-92,-37r0,-81v-183,-11,-224,-139,-224,-355v0,-229,44,-361,252,-361v93,0,189,21,189,21r-4,57v0,0,-106,-19,-180,-19v-167,0,-193,107,-193,302v0,192,27,296,194,296v66,0,179,-18,179,-18r3,56v0,0,-100,20,-178,22r0,42v73,0,109,14,109,75","w":537},"\u00e7":{"d":"366,127v0,59,-36,84,-89,84v-44,0,-84,-6,-84,-6r2,-40v0,0,41,3,71,3v28,0,45,-10,45,-41v0,-44,-49,-37,-92,-37r0,-82v-129,-11,-165,-87,-165,-267v0,-183,57,-250,206,-250v43,0,130,12,130,12r-2,53v0,0,-80,-9,-118,-9v-120,0,-155,51,-155,194v0,155,25,213,155,213v38,0,119,-9,119,-9r3,53v0,0,-92,12,-135,12r0,42v73,0,109,14,109,75","w":437},"\u0160":{"d":"472,-690r-5,57v0,0,-138,-17,-196,-17v-104,0,-161,36,-161,122v0,102,53,118,176,142v136,27,201,60,201,184v0,153,-81,210,-219,210v-76,0,-213,-19,-213,-19r6,-57v0,0,135,17,206,17v104,0,157,-41,157,-148v0,-87,-45,-108,-161,-130v-141,-26,-216,-57,-216,-197v0,-130,86,-183,224,-183v77,0,201,19,201,19xm433,-933r-133,131r-53,0r-134,-131r72,0r88,84r88,-84r72,0","w":534},"\u0142":{"d":"102,0r0,-294r-71,50r-30,-43r101,-71r0,-364r60,0r0,322r77,-54r30,43r-107,75r0,336r-60,0","w":265},"\u0141":{"d":"474,0r-379,0r0,-292r-70,49r-31,-42r101,-71r0,-341r61,0r0,299r182,-128r31,42r-213,150r0,275r318,0r0,59","w":519},"\u017d":{"d":"60,-639r0,-58r450,0r0,85r-378,534r0,20r378,0r0,59r-450,0r0,-85r378,-533r0,-22r-378,0xm445,-933r-133,131r-53,0r-134,-131r72,0r88,84r88,-84r72,0","w":570},"\u0178":{"d":"306,-299r0,299r-62,0r0,-299r-223,-398r69,0r185,329r182,-329r69,0xm140,-827r0,-79r59,0r0,79r-59,0xm343,-827r0,-79r58,0r0,79r-58,0","w":548},"I":{"d":"89,0r0,-697r61,0r0,697r-61,0","w":239},"O":{"d":"326,-49v173,0,208,-94,208,-296v0,-193,-39,-303,-208,-303v-170,0,-207,109,-207,303v0,195,35,296,207,296xm326,10v-215,0,-271,-123,-271,-355v0,-229,57,-362,271,-362v214,0,272,131,272,362v0,239,-57,355,-272,355","w":653},"~":{"d":"457,-374r7,59v0,0,-52,52,-104,52v-59,0,-142,-52,-188,-52v-40,0,-99,50,-99,50r-8,-58v0,0,56,-53,109,-53v60,0,142,51,187,51v38,0,96,-49,96,-49"},"L":{"d":"474,0r-379,0r0,-697r61,0r0,638r318,0r0,59","w":519},"B":{"d":"95,-697r246,0v132,0,204,51,204,171v0,97,-35,143,-91,167v62,20,115,60,115,163v0,149,-84,196,-213,196r-261,0r0,-697xm348,-326r-192,0r0,269v162,-7,350,45,350,-141v0,-121,-106,-128,-158,-128xm339,-640r-183,0r0,258r192,0v95,0,134,-48,134,-138v0,-86,-46,-120,-143,-120","w":621},"D":{"d":"346,0r-251,0r0,-697r251,0v192,0,248,149,248,338v0,190,-55,359,-248,359xm530,-359v0,-148,-38,-280,-184,-280r-190,0r0,581r190,0v146,0,184,-153,184,-301","w":646},"P":{"d":"348,-242r-192,0r0,242r-61,0r0,-697r253,0v149,0,216,69,216,218v0,149,-67,237,-216,237xm156,-301r192,0v108,0,153,-68,153,-178v0,-109,-45,-160,-153,-160r-192,0r0,338","w":609},"b":{"d":"308,-509v136,0,178,73,178,250v0,193,-50,269,-233,269v-63,0,-161,-10,-161,-10r0,-722r60,0r0,248v0,0,78,-35,156,-35xm252,-44v148,0,172,-68,172,-214v0,-137,-24,-196,-120,-196v-75,0,-152,32,-152,32r0,372v0,0,70,6,100,6","w":540},"v":{"d":"28,-500r63,0r130,448r39,0r131,-448r62,0r-148,500r-131,0","w":481},"x":{"d":"31,-500r66,0r132,206r133,-206r66,0r-161,250r161,250r-67,0r-132,-205r-132,205r-66,0r161,-250","w":459},"6":{"d":"466,-657r-6,57v0,0,-87,-12,-171,-12v-120,0,-188,84,-189,244v0,1,98,-42,176,-42v144,0,220,66,220,202v0,138,-81,218,-229,218v-161,0,-231,-128,-231,-344v0,-239,99,-336,253,-336v84,0,177,13,177,13xm272,-353v-83,0,-173,41,-173,41v2,151,47,264,168,264v107,0,165,-55,165,-160v0,-100,-61,-145,-160,-145"},"9":{"d":"65,-4r6,-56v0,0,87,12,171,12v127,0,192,-77,193,-242v0,0,-105,39,-183,39v-137,0,-213,-62,-213,-200v0,-136,89,-219,225,-219v165,0,235,130,235,344v0,254,-96,336,-257,336v-84,0,-177,-14,-177,-14xm257,-308v73,0,179,-39,179,-39v-3,-156,-50,-265,-172,-265v-99,0,-161,62,-161,161v0,101,53,143,154,143"},"<":{"d":"410,-495r-290,182r290,191r0,66v-29,-15,-293,-190,-347,-224r0,-62r347,-217r0,64"},">":{"d":"353,-313r-290,-182r0,-64r347,217r0,62v-55,34,-318,209,-347,224r0,-66"},"[":{"d":"243,-749r0,57r-139,0r0,758r139,0r0,57r-199,0r0,-872r199,0","w":300},"\\":{"d":"449,-17r-63,26r-306,-690r64,-27","w":534},"]":{"d":"44,-692r0,-57r199,0r0,872r-199,0r0,-57r139,0r0,-758r-139,0","w":300},"|":{"d":"229,102r0,-814r61,0r0,814r-61,0"},"\u0192":{"d":"244,-474v1,-151,28,-207,142,-207v35,0,87,4,87,4r-1,52v0,0,-57,-2,-88,-2v-52,0,-81,39,-81,126r0,88r152,0r0,55r-152,0r0,424v0,136,-52,179,-141,179v-35,0,-92,-5,-92,-5r1,-51v1,0,63,3,91,3v50,0,82,-31,82,-126r0,-424r-66,0r0,-55r66,0r0,-61"},"\u0152":{"d":"882,1r-408,0v-41,4,-111,9,-148,9v-215,0,-266,-122,-266,-355v0,-237,57,-362,266,-362v37,0,110,10,147,10r409,0r0,60r-348,0r0,250r288,0r0,60r-288,0r0,267r348,0r0,61xm332,-50v22,0,106,-5,141,-8r0,-579v-35,-3,-117,-11,-142,-11v-169,0,-207,100,-207,302v0,200,34,296,208,296","w":944},"\u0153":{"d":"618,-45v73,0,183,-9,183,-9r2,50v0,0,-113,14,-191,14v-88,0,-138,-33,-165,-92v-27,63,-79,92,-176,92v-168,0,-212,-79,-212,-268v0,-177,57,-251,212,-251v90,0,149,31,178,103v34,-76,98,-103,175,-103v144,0,212,105,194,284r-339,0v0,118,34,180,139,180xm271,-44v128,0,146,-70,146,-213v0,-143,-45,-198,-146,-198v-115,0,-150,48,-150,197v0,152,21,214,150,214xm478,-275r282,0v0,-132,-42,-181,-136,-181v-91,0,-146,52,-146,181","w":876},"4":{"d":"361,3r0,-133r-331,0r0,-51r195,-479r67,0r-191,471r260,0r0,-214r62,0r0,214r88,0r0,59r-88,0r0,133r-62,0"},"\"":{"d":"251,-486r-57,0r-1,-212r59,0xm103,-486r-57,0r0,-212r58,0","w":299},"'":{"d":"19,-476r-2,-220r63,0r-5,220r-56,0","w":100},"(":{"d":"140,-750r63,0v0,0,-95,260,-95,449v0,186,95,426,95,426r-63,0v0,0,-97,-226,-97,-426v0,-200,97,-449,97,-449","w":260},")":{"d":"43,-750r63,0v0,0,97,239,97,439v0,200,-97,436,-97,436r-63,0v0,0,95,-250,95,-436v0,-189,-95,-439,-95,-439","w":260},",":{"d":"34,123r44,-222r66,0r-53,222r-57,0","w":170},"-":{"d":"62,-252r0,-58r315,0r0,58r-315,0","w":440},".":{"d":"85,0r0,-101r66,0r0,101r-66,0","w":248},":":{"d":"66,-330r0,-102r66,0r0,102r-66,0xm66,0r0,-101r66,0r0,101r-66,0","w":163},";":{"d":"29,121r46,-225r67,0r-59,225r-54,0xm70,-330r0,-102r66,0r0,102r-66,0","w":188},"=":{"d":"36,-340r0,-56r452,0r0,56r-452,0xm37,-159r0,-56r452,0r0,56r-452,0"},"?":{"d":"382,-542v0,168,-193,208,-193,309r0,38r-63,0v-26,-174,193,-192,193,-343v0,-84,-46,-112,-145,-112v-48,0,-158,26,-158,26r-7,-59v0,0,113,-27,167,-27v134,0,206,43,206,168xm125,-1r0,-101r66,0r0,101r-66,0","w":386},"_":{"d":"27,22r428,0r0,56r-428,0r0,-56","w":520},"{":{"d":"170,-170v0,120,-35,241,118,240r-2,57v-133,-5,-186,-57,-186,-176v0,-127,33,-206,-94,-236r0,-52v130,-25,94,-116,94,-240v0,-121,53,-171,186,-176r2,57v-101,5,-125,44,-125,122v0,33,7,92,7,121v0,86,-27,117,-100,141v73,24,100,59,100,142","w":298},"}":{"d":"124,-170v0,-83,27,-118,100,-142v-73,-24,-100,-55,-100,-141v0,-29,7,-88,7,-121v0,-78,-24,-117,-125,-122r1,-57v133,5,186,55,186,176v0,123,-36,216,95,240r0,52v-127,32,-95,107,-95,236v0,119,-53,171,-186,176r-1,-57v153,0,118,-119,118,-240","w":298},"\u20ac":{"d":"21,-436r63,0v14,-158,71,-240,245,-240v92,0,176,19,176,19r-3,57v0,0,-94,-16,-168,-16v-135,0,-175,61,-186,181r286,0r0,51r-290,0r0,101r290,1r0,51r-286,0v11,121,51,181,187,181v66,0,167,-16,167,-16r3,57v0,0,-97,19,-176,19v-175,0,-232,-81,-245,-241r-63,0r0,-52r59,0r0,-101r-59,0r0,-52","w":546},"&":{"d":"323,-699v115,0,166,60,166,153v0,96,-47,142,-157,188r160,159v11,-36,23,-89,29,-139r59,1v-9,67,-24,132,-42,178r133,129r-38,42r-124,-120v-54,85,-122,121,-225,121v-168,0,-233,-82,-233,-218v0,-118,55,-167,157,-202v-45,-52,-51,-86,-51,-143v0,-89,58,-149,166,-149xm286,-44v81,0,136,-30,178,-104r-216,-217v-96,29,-136,69,-136,159v0,104,51,162,174,162xm217,-545v0,56,37,116,76,148v97,-38,135,-70,135,-146v0,-64,-30,-100,-105,-100v-68,0,-106,32,-106,98","w":700},"*":{"d":"439,-514r-134,0r41,127r-42,13r-42,-128r-108,79r-26,-35r109,-79r-107,-79r26,-36r107,78r42,-126r43,14r-41,128r132,0r0,44"},"%":{"d":"413,-277v75,0,111,43,111,137v0,93,-37,140,-111,140v-75,0,-111,-47,-111,-141v0,-93,35,-136,111,-136xm145,-19r214,-680r43,17r-213,680xm353,-141v0,62,13,97,60,97v47,0,60,-34,60,-96v0,-63,-13,-93,-60,-93v-46,0,-60,30,-60,92xm133,-702v75,0,110,43,110,137v0,94,-36,140,-110,140v-75,0,-111,-46,-111,-141v0,-93,35,-136,111,-136xm73,-566v0,63,13,97,60,97v47,0,60,-33,60,-96v0,-62,-13,-93,-60,-93v-47,0,-60,31,-60,92"},"+":{"d":"-33,-233r0,-56r221,0r0,-221r58,0r0,221r223,0r0,56r-223,0r0,223r-58,0r0,-223r-221,0","w":440},"^":{"d":"407,-328r-146,-272r-140,272r-65,0r173,-332r63,0r181,332r-66,0"},"\u01ff":{"d":"265,-509v29,0,54,4,77,10r43,-106r43,15r-45,108v62,36,90,109,90,225v0,179,-41,267,-208,267v-31,0,-57,-3,-80,-8r-45,111r-43,-15r46,-111v-68,-36,-89,-114,-89,-245v0,-177,56,-251,211,-251xm265,-455v-115,0,-150,48,-150,197v0,100,9,161,52,191r154,-380v-16,-5,-35,-8,-56,-8xm265,-44v129,0,146,-70,146,-213v0,-86,-16,-141,-52,-170r-154,377v17,4,37,6,60,6xm148,-648r208,-95r23,55r-210,89","w":527},"\u0100":{"d":"31,0r200,-697r145,0r197,696r-62,0r-58,-189r-304,0r-56,190r-62,0xm276,-640r-112,391r275,0r-111,-391r-52,0xm143,-822r0,-53r302,0r0,53r-302,0","w":604},"\u0102":{"d":"31,0r200,-697r145,0r197,696r-62,0r-58,-189r-304,0r-56,190r-62,0xm276,-640r-112,391r275,0r-111,-391r-52,0xm152,-925r61,0v1,47,41,75,89,75v48,0,88,-28,89,-75r61,0v-2,77,-64,127,-150,127v-86,0,-148,-50,-150,-127","w":604},"\u01fa":{"d":"411,-750v0,31,-11,56,-30,73r192,676r-62,0r-58,-189r-304,0r-56,190r-62,0r193,-674v-21,-17,-33,-42,-33,-76v0,-64,46,-101,110,-101v64,0,110,37,110,101xm276,-640r-112,391r275,0r-111,-391r-52,0xm184,-930r208,-95r23,55r-210,88xm301,-805v-71,0,-81,100,-18,108v48,5,78,-11,78,-53v0,-35,-23,-55,-60,-55","w":604},"\u0104":{"d":"586,144r6,51v0,0,-41,9,-73,9v-50,0,-87,-32,-87,-85v0,-48,63,-110,78,-123r-57,-186r-304,0r-56,190r-62,0r200,-697r145,0r197,696r-5,0v0,0,-74,74,-74,107v0,24,16,44,41,44v16,0,51,-6,51,-6xm276,-640r-112,391r275,0r-111,-391r-52,0","w":604},"\u01fc":{"d":"429,0r0,-190r-261,0r-65,190r-65,0r234,-697r573,0r0,58r-355,0r0,252r295,0r0,58r-295,0r0,271r355,0r0,58r-416,0xm318,-639r-132,390r243,0r0,-390r-111,0xm325,-838r208,-95r23,55r-210,89","w":838},"\u0106":{"d":"490,-68r3,56v0,0,-109,22,-188,22v-207,0,-252,-130,-252,-356v0,-229,44,-361,252,-361v93,0,189,21,189,21r-4,57v0,0,-106,-19,-180,-19v-167,0,-193,107,-193,302v0,192,27,296,194,296v66,0,179,-18,179,-18xm174,-838r208,-95r23,55r-210,89","w":535},"\u0108":{"d":"490,-68r3,56v0,0,-109,22,-188,22v-207,0,-252,-130,-252,-356v0,-229,44,-361,252,-361v93,0,189,21,189,21r-4,57v0,0,-106,-19,-180,-19v-167,0,-193,107,-193,302v0,192,27,296,194,296v66,0,179,-18,179,-18xm145,-799r134,-131r53,0r133,131r-71,0r-88,-83r-88,83r-73,0","w":535},"\u010c":{"d":"490,-68r3,56v0,0,-109,22,-188,22v-207,0,-252,-130,-252,-356v0,-229,44,-361,252,-361v93,0,189,21,189,21r-4,57v0,0,-106,-19,-180,-19v-167,0,-193,107,-193,302v0,192,27,296,194,296v66,0,179,-18,179,-18xm454,-933r-133,131r-53,0r-134,-131r72,0r88,84r88,-84r72,0","w":535},"\u010a":{"d":"490,-68r3,56v0,0,-109,22,-188,22v-207,0,-252,-130,-252,-356v0,-229,44,-361,252,-361v93,0,189,21,189,21r-4,57v0,0,-106,-19,-180,-19v-167,0,-193,107,-193,302v0,192,27,296,194,296v66,0,179,-18,179,-18xm260,-828r0,-75r60,0r0,75r-60,0","w":535},"\u010e":{"d":"346,0r-251,0r0,-697r251,0v192,0,248,149,248,338v0,190,-55,359,-248,359xm530,-359v0,-148,-38,-280,-184,-280r-190,0r0,581r190,0v146,0,184,-153,184,-301xm459,-933r-133,131r-53,0r-134,-131r72,0r88,84r88,-84r72,0","w":646},"\u011a":{"d":"95,0r0,-697r416,0r0,58r-355,0r0,255r295,0r0,58r-295,0r0,268r355,0r0,58r-416,0xm472,-937r-133,131r-53,0r-134,-131r72,0r88,84r88,-84r72,0","w":567},"\u0112":{"d":"95,0r0,-697r416,0r0,58r-355,0r0,255r295,0r0,58r-295,0r0,268r355,0r0,58r-416,0xm150,-824r0,-53r302,0r0,53r-302,0","w":567},"\u0114":{"d":"95,0r0,-697r416,0r0,58r-355,0r0,255r295,0r0,58r-295,0r0,268r355,0r0,58r-416,0xm161,-925r61,0v1,47,41,75,89,75v48,0,88,-28,89,-75r61,0v-2,76,-64,127,-150,127v-86,0,-148,-51,-150,-127","w":567},"\u0116":{"d":"95,0r0,-697r416,0r0,58r-355,0r0,255r295,0r0,58r-295,0r0,268r355,0r0,58r-416,0xm273,-828r0,-75r60,0r0,75r-60,0","w":567},"\u0118":{"d":"95,0r0,-697r416,0r0,58r-355,0r0,255r295,0r0,58r-295,0r0,268r355,0r0,58r-28,0v-4,3,-73,74,-73,106v0,24,16,44,41,44v16,0,51,-6,51,-6r6,51v0,0,-41,9,-73,9v-50,0,-87,-32,-87,-85v0,-45,54,-101,74,-119r-327,0","w":567},"\u011c":{"d":"355,-295r0,-57r189,0r0,337v0,0,-142,25,-223,25v-209,0,-266,-132,-266,-357v0,-225,55,-360,265,-360v105,0,224,26,224,26r-3,56v0,0,-125,-23,-216,-23v-170,0,-206,107,-206,301v0,193,36,298,205,298v64,0,154,-16,159,-16r0,-230r-128,0xm158,-799r134,-131r53,0r133,131r-71,0r-88,-83r-88,83r-73,0","w":611},"\u011e":{"d":"355,-295r0,-57r189,0r0,337v0,0,-142,25,-223,25v-209,0,-266,-132,-266,-357v0,-225,55,-360,265,-360v105,0,224,26,224,26r-3,56v0,0,-125,-23,-216,-23v-170,0,-206,107,-206,301v0,193,36,298,205,298v64,0,154,-16,159,-16r0,-230r-128,0xm175,-925r61,0v1,47,41,75,89,75v49,0,88,-28,89,-75r61,0v-2,77,-64,127,-150,127v-86,0,-147,-50,-150,-127","w":611},"\u0120":{"d":"355,-295r0,-57r189,0r0,337v0,0,-142,25,-223,25v-209,0,-266,-132,-266,-357v0,-225,55,-360,265,-360v105,0,224,26,224,26r-3,56v0,0,-125,-23,-216,-23v-170,0,-206,107,-206,301v0,193,36,298,205,298v64,0,154,-16,159,-16r0,-230r-128,0xm278,-830r0,-75r60,0r0,75r-60,0","w":611},"\u0122":{"d":"355,-295r0,-57r189,0r0,337v0,0,-142,25,-223,25v-209,0,-266,-132,-266,-357v0,-225,55,-360,265,-360v105,0,224,26,224,26r-3,56v0,0,-125,-23,-216,-23v-170,0,-206,107,-206,301v0,193,36,298,205,298v64,0,154,-16,159,-16r0,-230r-128,0xm256,278r40,-200r60,0r-49,200r-51,0","w":611},"\u0124":{"d":"533,0r0,-322r-377,0r0,322r-61,0r0,-697r61,0r0,317r377,0r0,-317r61,0r0,697r-61,0xm185,-798r134,-131r53,0r133,131r-71,0r-88,-83r-88,83r-73,0","w":688},"\u0126":{"d":"17,-513r0,-53r78,0r0,-131r61,0r0,131r377,0r0,-131r61,0r0,131r87,0r0,53r-87,0r0,513r-61,0r0,-322r-377,0r0,322r-61,0r0,-513r-78,0xm156,-380r377,0r0,-133r-377,0r0,133","w":688},"\u0128":{"d":"89,0r0,-697r61,0r0,697r-61,0xm282,-910r15,47v0,0,-52,57,-89,57v-45,0,-129,-59,-161,-59v-23,0,-80,51,-80,51r-15,-47v0,0,56,-59,94,-59v48,0,130,58,161,58v20,0,75,-48,75,-48","w":239},"\u012a":{"d":"89,0r0,-697r61,0r0,697r-61,0xm-31,-835r0,-53r302,0r0,53r-302,0","w":239},"\u012c":{"d":"89,0r0,-697r61,0r0,697r-61,0xm-31,-925r61,0v2,47,41,75,89,75v49,0,89,-28,90,-75r61,0v-3,77,-65,127,-151,127v-85,0,-147,-50,-150,-127","w":239},"\u0130":{"d":"89,0r0,-697r61,0r0,697r-61,0xm89,-828r0,-75r60,0r0,75r-60,0","w":239},"\u012e":{"d":"168,144r6,51v0,0,-41,9,-73,9v-50,0,-87,-32,-87,-85v0,-46,56,-102,75,-119r0,-697r61,0r-1,697v-4,3,-73,74,-73,106v0,24,16,44,41,44v16,0,51,-6,51,-6","w":239},"\u0134":{"d":"217,-698v0,212,1,377,1,591v0,170,-57,179,-184,179r0,-57v99,0,121,-4,121,-132r0,-581r62,0xm8,-798r134,-131r53,0r133,131r-71,0r-88,-83r-88,83r-73,0","w":306},"\u0136":{"d":"479,0r-202,-314r-121,2r0,312r-61,0r0,-697r61,0r0,326r119,-2r193,-324r72,0r-210,349r223,348r-74,0xm245,278r40,-200r60,0r-49,200r-51,0","w":596},"\u0139":{"d":"474,0r-379,0r0,-697r61,0r0,638r318,0r0,59xm145,-838r208,-95r23,55r-210,89","w":519},"\u013d":{"d":"474,0r-379,0r0,-697r61,0r0,638r318,0r0,59xm441,-697r0,227r-58,0r0,-227r58,0","w":519},"\u013b":{"d":"474,0r-379,0r0,-697r61,0r0,638r318,0r0,59xm210,278r40,-200r60,0r-49,200r-51,0","w":519},"\u0143":{"d":"95,0r0,-697r118,0r297,628r24,0r0,-628r62,0r0,697r-117,0r-300,-628r-23,0r0,628r-61,0xm229,-838r208,-95r23,55r-210,89","w":690},"\u0147":{"d":"95,0r0,-697r118,0r297,628r24,0r0,-628r62,0r0,697r-117,0r-300,-628r-23,0r0,628r-61,0xm505,-929r-133,131r-53,0r-134,-131r72,0r88,84r88,-84r72,0","w":690},"\u0145":{"d":"95,0r0,-697r118,0r297,628r24,0r0,-628r62,0r0,697r-117,0r-300,-628r-23,0r0,628r-61,0xm295,278r40,-200r60,0r-49,200r-51,0","w":690},"\u014c":{"d":"326,-49v173,0,208,-94,208,-296v0,-193,-39,-303,-208,-303v-170,0,-207,109,-207,303v0,195,35,296,207,296xm326,10v-215,0,-271,-123,-271,-355v0,-229,57,-362,271,-362v214,0,272,131,272,362v0,239,-57,355,-272,355xm173,-832r0,-53r302,0r0,53r-302,0","w":653},"\u014e":{"d":"326,-49v173,0,208,-94,208,-296v0,-193,-39,-303,-208,-303v-170,0,-207,109,-207,303v0,195,35,296,207,296xm326,10v-215,0,-271,-123,-271,-355v0,-229,57,-362,271,-362v214,0,272,131,272,362v0,239,-57,355,-272,355xm176,-925r61,0v2,47,41,75,89,75v49,0,89,-28,90,-75r61,0v-3,77,-65,127,-151,127v-85,0,-147,-50,-150,-127","w":653},"\u0150":{"d":"326,-49v173,0,208,-94,208,-296v0,-193,-39,-303,-208,-303v-170,0,-207,109,-207,303v0,195,35,296,207,296xm326,10v-215,0,-271,-123,-271,-355v0,-229,57,-362,271,-362v214,0,272,131,272,362v0,239,-57,355,-272,355xm334,-810r160,-114r43,33r-164,114xm136,-810r161,-115r42,34r-163,113","w":653},"\u01fe":{"d":"326,10v-48,0,-88,-7,-122,-18r-58,124r-55,-24r60,-129v-73,-55,-96,-159,-96,-308v0,-229,57,-362,271,-362v52,0,94,8,129,23r53,-113r56,22r-58,122v69,59,92,164,92,308v0,239,-57,355,-272,355xm119,-345v0,118,13,201,60,249r250,-532v-28,-13,-62,-20,-103,-20v-170,0,-207,109,-207,303xm326,-49v173,0,208,-94,208,-296v0,-111,-13,-195,-57,-246r-247,527v26,10,58,15,96,15xm205,-838r208,-95r23,55r-210,89","w":656},"\u0154":{"d":"505,0r-137,-273r-212,0r0,273r-61,0r0,-697r254,0v145,0,216,61,216,207v0,109,-38,178,-134,203r143,287r-69,0xm501,-490v0,-103,-48,-149,-152,-149r-193,0r0,308r193,0v116,0,152,-63,152,-159xm197,-838r208,-95r23,55r-210,89","w":625},"\u0158":{"d":"505,0r-137,-273r-212,0r0,273r-61,0r0,-697r254,0v145,0,216,61,216,207v0,109,-38,178,-134,203r143,287r-69,0xm501,-490v0,-103,-48,-149,-152,-149r-193,0r0,308r193,0v116,0,152,-63,152,-159xm473,-929r-133,131r-53,0r-134,-131r72,0r88,84r88,-84r72,0","w":625},"\u0156":{"d":"505,0r-137,-273r-212,0r0,273r-61,0r0,-697r254,0v145,0,216,61,216,207v0,109,-38,178,-134,203r143,287r-69,0xm501,-490v0,-103,-48,-149,-152,-149r-193,0r0,308r193,0v116,0,152,-63,152,-159xm262,278r40,-200r60,0r-49,200r-51,0","w":626},"\u015a":{"d":"472,-690r-5,57v0,0,-138,-17,-196,-17v-104,0,-161,36,-161,122v0,102,53,118,176,142v136,27,201,60,201,184v0,153,-81,210,-219,210v-76,0,-213,-19,-213,-19r6,-57v0,0,135,17,206,17v104,0,157,-41,157,-148v0,-87,-45,-108,-161,-130v-141,-26,-216,-57,-216,-197v0,-130,86,-183,224,-183v77,0,201,19,201,19xm154,-838r208,-95r23,55r-210,89","w":534},"\u015c":{"d":"472,-690r-5,57v0,0,-138,-17,-196,-17v-104,0,-161,36,-161,122v0,102,53,118,176,142v136,27,201,60,201,184v0,153,-81,210,-219,210v-76,0,-213,-19,-213,-19r6,-57v0,0,135,17,206,17v104,0,157,-41,157,-148v0,-87,-45,-108,-161,-130v-141,-26,-216,-57,-216,-197v0,-130,86,-183,224,-183v77,0,201,19,201,19xm110,-799r134,-131r53,0r133,131r-71,0r-88,-83r-88,83r-73,0","w":534},"\u015e":{"d":"399,127v0,59,-36,84,-89,84v-44,0,-84,-6,-84,-6r2,-40v0,0,41,3,71,3v28,0,45,-10,45,-41v0,-44,-49,-37,-92,-37r0,-82v-78,-2,-197,-19,-197,-19r6,-57v0,0,135,17,206,17v104,0,157,-41,157,-148v0,-87,-45,-108,-161,-130v-141,-26,-216,-57,-216,-197v0,-130,86,-183,224,-183v77,0,201,19,201,19r-5,57v0,0,-138,-17,-196,-17v-104,0,-161,36,-161,122v0,102,53,118,176,142v136,27,201,60,201,184v0,145,-73,203,-197,209r0,45v73,0,109,14,109,75","w":534},"\u0218":{"d":"472,-690r-5,57v0,0,-138,-17,-196,-17v-104,0,-161,36,-161,122v0,102,53,118,176,142v136,27,201,60,201,184v0,153,-81,210,-219,210v-76,0,-213,-19,-213,-19r6,-57v0,0,135,17,206,17v104,0,157,-41,157,-148v0,-87,-45,-108,-161,-130v-141,-26,-216,-57,-216,-197v0,-130,86,-183,224,-183v77,0,201,19,201,19xm213,278r40,-200r60,0r-49,200r-51,0","w":534},"\u0164":{"d":"-3,-639r0,-58r500,0r0,58r-218,0r0,639r-61,0r0,-639r-221,0xm408,-929r-133,131r-53,0r-134,-131r72,0r88,84r88,-84r72,0","w":495},"\u0162":{"d":"-3,-639r0,-58r500,0r0,58r-218,0r0,639r-61,0r0,-639r-221,0xm197,278r40,-200r60,0r-49,200r-51,0","w":495},"\u0166":{"d":"53,-312r0,-53r165,0r0,-274r-221,0r0,-58r500,0r0,58r-218,0r0,274r176,0r0,53r-176,0r0,312r-61,0r0,-312r-165,0","w":495},"\u0168":{"d":"144,-204v0,114,67,154,173,154v112,0,180,-39,180,-154r0,-493r61,0r0,493v0,155,-86,213,-241,213v-148,0,-235,-58,-235,-213r0,-493r62,0r0,493xm480,-912r16,46v0,0,-52,57,-89,57v-45,0,-129,-59,-162,-59v-22,0,-80,52,-80,52r-14,-47v0,0,56,-59,94,-59v47,0,130,58,161,58v20,0,74,-48,74,-48","w":643},"\u016a":{"d":"144,-204v0,114,67,154,173,154v112,0,180,-39,180,-154r0,-493r61,0r0,493v0,155,-86,213,-241,213v-148,0,-235,-58,-235,-213r0,-493r62,0r0,493xm170,-832r0,-53r302,0r0,53r-302,0","w":643},"\u016c":{"d":"144,-204v0,114,67,154,173,154v112,0,180,-39,180,-154r0,-493r61,0r0,493v0,155,-86,213,-241,213v-148,0,-235,-58,-235,-213r0,-493r62,0r0,493xm171,-925r61,0v2,47,41,75,89,75v49,0,89,-28,90,-75r61,0v-3,77,-65,127,-151,127v-85,0,-147,-50,-150,-127","w":643},"\u016e":{"d":"144,-204v0,114,67,154,173,154v112,0,180,-39,180,-154r0,-493r61,0r0,493v0,155,-86,213,-241,213v-148,0,-235,-58,-235,-213r0,-493r62,0r0,493xm432,-847v0,64,-47,100,-111,100v-64,0,-110,-36,-110,-100v0,-64,46,-101,110,-101v64,0,111,37,111,101xm262,-847v0,35,22,55,59,55v38,0,60,-20,60,-55v0,-35,-22,-55,-60,-55v-37,0,-59,20,-59,55","w":643},"\u0170":{"d":"144,-204v0,114,67,154,173,154v112,0,180,-39,180,-154r0,-493r61,0r0,493v0,155,-86,213,-241,213v-148,0,-235,-58,-235,-213r0,-493r62,0r0,493xm349,-789r160,-115r43,33r-164,114xm151,-790r161,-115r42,34r-163,113","w":643},"\u0172":{"d":"428,144r6,51v0,0,-41,9,-73,9v-50,0,-87,-32,-87,-85v0,-39,41,-87,65,-111v-158,8,-257,-50,-257,-212r0,-493r62,0r0,493v0,114,67,154,173,154v112,0,180,-39,180,-154r0,-493r61,0r0,493v0,121,-53,183,-149,204v-4,3,-73,74,-73,106v0,24,16,44,41,44v16,0,51,-6,51,-6","w":643},"\u1e80":{"d":"40,-697r62,0r133,636r33,0r142,-629r69,0r146,629r32,0r130,-636r62,0r-146,697r-123,0r-136,-604r-131,604r-123,0xm350,-930r208,95r-21,48r-210,-88","w":889},"\u1e82":{"d":"40,-697r62,0r133,636r33,0r142,-629r69,0r146,629r32,0r130,-636r62,0r-146,697r-123,0r-136,-604r-131,604r-123,0xm337,-838r208,-95r23,55r-210,89","w":889},"\u0174":{"d":"40,-697r62,0r133,636r33,0r142,-629r69,0r146,629r32,0r130,-636r62,0r-146,697r-123,0r-136,-604r-131,604r-123,0xm284,-799r134,-131r53,0r133,131r-71,0r-88,-83r-88,83r-73,0","w":889},"\u1e84":{"d":"40,-697r62,0r133,636r33,0r142,-629r69,0r146,629r32,0r130,-636r62,0r-146,697r-123,0r-136,-604r-131,604r-123,0xm314,-827r0,-79r58,0r0,79r-58,0xm516,-827r0,-79r58,0r0,79r-58,0","w":889},"\u1ef2":{"d":"306,-299r0,299r-62,0r0,-299r-223,-398r69,0r185,329r182,-329r69,0xm187,-930r208,95r-21,48r-210,-88","w":548},"\u0176":{"d":"306,-299r0,299r-62,0r0,-299r-223,-398r69,0r185,329r182,-329r69,0xm114,-799r134,-131r53,0r133,131r-71,0r-88,-83r-88,83r-73,0","w":548},"\u0179":{"d":"60,-639r0,-58r450,0r0,85r-378,534r0,20r378,0r0,59r-450,0r0,-85r378,-533r0,-22r-378,0xm169,-838r208,-95r23,55r-210,89","w":570},"\u017b":{"d":"60,-639r0,-58r450,0r0,85r-378,534r0,20r378,0r0,59r-450,0r0,-85r378,-533r0,-22r-378,0xm255,-828r0,-75r59,0r0,75r-59,0","w":570},"\u014a":{"d":"95,0r0,-697r118,0r297,628r24,0r0,-628r62,0r1,701v0,170,-57,179,-184,179r0,-57v97,0,120,-4,121,-126r-55,0r-300,-628r-23,0r0,628r-61,0","w":690},"\u0101":{"d":"427,-349r0,261v3,31,32,41,65,45r-3,52v-54,0,-88,-10,-113,-38v0,0,-90,39,-192,39v-84,0,-133,-53,-133,-151v0,-92,45,-136,147,-146r170,-17v7,-89,-16,-148,-96,-148v-73,0,-190,15,-190,15r-4,-53v0,0,118,-19,196,-19v104,0,153,50,153,160xm368,-254r-163,15v-67,6,-92,42,-92,97v0,64,29,99,78,99v85,0,177,-34,177,-34r0,-177xm116,-637r0,-53r282,0r0,53r-282,0","w":520},"\u0103":{"d":"427,-349r0,261v3,31,32,41,65,45r-3,52v-54,0,-88,-10,-113,-38v0,0,-90,39,-192,39v-84,0,-133,-53,-133,-151v0,-92,45,-136,147,-146r170,-17v7,-89,-16,-148,-96,-148v-73,0,-190,15,-190,15r-4,-53v0,0,118,-19,196,-19v104,0,153,50,153,160xm368,-254r-163,15v-67,6,-92,42,-92,97v0,64,29,99,78,99v85,0,177,-34,177,-34r0,-177xm108,-729r61,0v1,49,34,83,91,83v57,0,90,-34,91,-83r61,0v-2,79,-58,137,-152,137v-94,0,-149,-58,-152,-137","w":520},"\u01fb":{"d":"427,-349r0,261v3,31,32,41,65,45r-3,52v-54,0,-88,-10,-113,-38v0,0,-90,39,-192,39v-84,0,-133,-53,-133,-151v0,-92,45,-136,147,-146r170,-17v7,-89,-16,-148,-96,-148v-73,0,-190,15,-190,15r-4,-53v0,0,118,-19,196,-19v104,0,153,50,153,160xm368,-254r-163,15v-67,6,-92,42,-92,97v0,64,29,99,78,99v85,0,177,-34,177,-34r0,-177xm151,-642v0,-56,44,-100,101,-100v56,0,100,44,100,100v0,57,-44,101,-100,101v-57,0,-101,-44,-101,-101xm198,-642v0,31,24,56,54,56v30,0,54,-25,54,-56v0,-30,-24,-55,-54,-55v-30,0,-54,25,-54,55xm145,-826r208,-95r23,55r-210,89","w":520},"\u0105":{"d":"485,144r6,51v0,0,-41,9,-73,9v-50,0,-87,-32,-87,-85v0,-49,64,-110,78,-123v-13,-6,-24,-14,-33,-25v0,0,-90,39,-192,39v-84,0,-133,-53,-133,-151v0,-92,45,-136,147,-146r170,-17v7,-89,-16,-148,-96,-148v-73,0,-190,15,-190,15r-4,-53v0,0,118,-19,196,-19v104,0,153,50,153,160r0,261v3,31,32,41,65,45r-3,52v-11,0,-21,0,-31,-1v-18,19,-65,71,-65,98v0,24,16,44,41,44v16,0,51,-6,51,-6xm368,-254r-163,15v-67,6,-92,42,-92,97v0,64,29,99,78,99v85,0,177,-34,177,-34r0,-177","w":520},"\u01fd":{"d":"570,-45v73,0,182,-9,182,-9r2,50v0,0,-112,14,-190,14v-69,0,-116,-20,-146,-56v-53,22,-88,56,-231,56v-87,0,-133,-52,-133,-151v0,-112,56,-138,182,-150r135,-13v7,-89,-18,-148,-96,-148v-74,0,-190,10,-190,10r-2,-54v0,0,116,-13,194,-13v72,0,117,26,136,81v36,-59,94,-81,163,-81v144,0,212,105,194,284r-340,0v1,118,35,180,140,180xm194,-43v80,0,185,-37,198,-42v-18,-43,-23,-99,-23,-169v-102,18,-253,-13,-253,112v0,65,29,99,78,99xm430,-275r282,0v0,-132,-43,-181,-136,-181v-92,0,-146,52,-146,181xm308,-648r208,-95r23,55r-210,89","w":828},"\u0107":{"d":"260,-509v43,0,130,12,130,12r-2,53v0,0,-80,-9,-118,-9v-120,0,-155,51,-155,194v0,155,25,213,155,213v38,0,119,-9,119,-9r3,53v0,0,-90,12,-133,12v-162,0,-205,-72,-205,-269v0,-183,57,-250,206,-250xm125,-648r208,-95r23,55r-210,89","w":437},"\u0109":{"d":"260,-509v43,0,130,12,130,12r-2,53v0,0,-80,-9,-118,-9v-120,0,-155,51,-155,194v0,155,25,213,155,213v38,0,119,-9,119,-9r3,53v0,0,-90,12,-133,12v-162,0,-205,-72,-205,-269v0,-183,57,-250,206,-250xm85,-595r124,-142r48,0r124,142r-68,0r-79,-90r-81,90r-68,0","w":437},"\u010d":{"d":"260,-509v43,0,130,12,130,12r-2,53v0,0,-80,-9,-118,-9v-120,0,-155,51,-155,194v0,155,25,213,155,213v38,0,119,-9,119,-9r3,53v0,0,-90,12,-133,12v-162,0,-205,-72,-205,-269v0,-183,57,-250,206,-250xm214,-595r-123,-142r67,0r81,89r80,-89r68,0r-124,142r-49,0","w":437},"\u010b":{"d":"260,-509v43,0,130,12,130,12r-2,53v0,0,-80,-9,-118,-9v-120,0,-155,51,-155,194v0,155,25,213,155,213v38,0,119,-9,119,-9r3,53v0,0,-90,12,-133,12v-162,0,-205,-72,-205,-269v0,-183,57,-250,206,-250xm208,-623r0,-75r60,0r0,75r-60,0","w":437},"\u010f":{"d":"449,-700r0,700r-60,0r0,-36v0,0,-79,46,-160,46v-84,0,-175,-30,-175,-256v0,-174,52,-263,209,-263v44,0,107,9,126,12r0,-203r60,0xm235,-45v74,0,154,-43,154,-43r0,-356v-20,-2,-84,-11,-124,-11v-119,0,-151,73,-151,211v0,175,63,199,121,199xm640,-697r0,227r-58,0r0,-227r58,0","w":723},"\u0111":{"d":"203,-622r0,-53r186,0r0,-25r60,0r0,25r36,0r0,53r-36,0r0,622r-60,0r0,-36v0,0,-79,46,-160,46v-84,0,-175,-30,-175,-256v0,-174,52,-263,209,-263v44,0,107,9,126,12r0,-125r-186,0xm235,-45v74,0,154,-43,154,-43r0,-356v-20,-2,-84,-11,-124,-11v-119,0,-151,73,-151,211v0,175,63,199,121,199","w":540},"\u011b":{"d":"254,-45v73,0,183,-9,183,-9r2,50v0,0,-113,14,-191,14v-149,-1,-194,-91,-194,-258v0,-193,84,-261,206,-261v145,0,211,104,195,284r-340,0v0,118,34,180,139,180xm115,-275r282,0v0,-132,-43,-181,-137,-181v-91,0,-145,51,-145,181xm228,-595r-123,-142r67,0r81,89r80,-89r68,0r-124,142r-49,0","w":507},"\u0113":{"d":"254,-45v73,0,183,-9,183,-9r2,50v0,0,-113,14,-191,14v-149,-1,-194,-91,-194,-258v0,-193,84,-261,206,-261v145,0,211,104,195,284r-340,0v0,118,34,180,139,180xm115,-275r282,0v0,-132,-43,-181,-137,-181v-91,0,-145,51,-145,181xm120,-637r0,-53r282,0r0,53r-282,0","w":507},"\u0115":{"d":"254,-45v73,0,183,-9,183,-9r2,50v0,0,-113,14,-191,14v-149,-1,-194,-91,-194,-258v0,-193,84,-261,206,-261v145,0,211,104,195,284r-340,0v0,118,34,180,139,180xm115,-275r282,0v0,-132,-43,-181,-137,-181v-91,0,-145,51,-145,181xm108,-729r61,0v1,49,34,83,91,83v57,0,90,-34,91,-83r61,0v-3,79,-59,137,-152,137v-94,0,-150,-58,-152,-137","w":507},"\u0117":{"d":"254,-45v73,0,183,-9,183,-9r2,50v0,0,-113,14,-191,14v-149,-1,-194,-91,-194,-258v0,-193,84,-261,206,-261v145,0,211,104,195,284r-340,0v0,118,34,180,139,180xm115,-275r282,0v0,-132,-43,-181,-137,-181v-91,0,-145,51,-145,181xm223,-623r0,-75r60,0r0,75r-60,0","w":507},"\u0119":{"d":"437,143r6,51v0,0,-41,9,-73,9v-50,0,-87,-32,-87,-85v0,-40,44,-90,68,-113v-34,3,-71,5,-103,5v-149,-1,-194,-91,-194,-258v0,-193,84,-261,206,-261v145,0,211,104,195,284r-340,0v0,118,34,180,139,180v73,0,183,-9,183,-9r2,50v0,0,-10,2,-21,3v-2,1,-73,73,-73,106v0,24,16,44,41,44v16,0,51,-6,51,-6xm115,-275r282,0v0,-132,-43,-181,-137,-181v-91,0,-145,51,-145,181","w":507},"\u011d":{"d":"259,239v-161,0,-209,-37,-209,-156v0,-61,28,-87,81,-126v-17,-11,-25,-37,-25,-68v0,-17,32,-78,32,-78v-43,-18,-81,-57,-81,-151v0,-122,71,-170,180,-170v52,0,105,13,105,13r144,-3r0,53r-97,0v21,21,34,48,34,107v0,147,-97,179,-240,163v0,0,-20,49,-20,62v0,43,8,49,127,49v136,0,188,24,188,145v0,113,-75,160,-219,160xm286,-13v-38,0,-113,-4,-113,-4v-48,34,-63,53,-63,96v0,78,27,106,150,106v109,0,156,-30,156,-104v0,-85,-36,-94,-130,-94xm234,-225v91,0,128,-28,128,-115v0,-96,-33,-117,-126,-117v-79,0,-119,28,-119,117v0,78,27,115,117,115xm108,-595r124,-142r48,0r124,142r-68,0r-79,-90r-81,90r-68,0","w":512},"\u011f":{"d":"259,239v-161,0,-209,-37,-209,-156v0,-61,28,-87,81,-126v-17,-11,-25,-37,-25,-68v0,-17,32,-78,32,-78v-43,-18,-81,-57,-81,-151v0,-122,71,-170,180,-170v52,0,105,13,105,13r144,-3r0,53r-97,0v21,21,34,48,34,107v0,147,-97,179,-240,163v0,0,-20,49,-20,62v0,43,8,49,127,49v136,0,188,24,188,145v0,113,-75,160,-219,160xm286,-13v-38,0,-113,-4,-113,-4v-48,34,-63,53,-63,96v0,78,27,106,150,106v109,0,156,-30,156,-104v0,-85,-36,-94,-130,-94xm234,-225v91,0,128,-28,128,-115v0,-96,-33,-117,-126,-117v-79,0,-119,28,-119,117v0,78,27,115,117,115xm104,-729r61,0v1,49,34,83,91,83v57,0,90,-34,91,-83r61,0v-2,79,-58,137,-152,137v-94,0,-149,-58,-152,-137","w":512},"\u0121":{"d":"259,239v-161,0,-209,-37,-209,-156v0,-61,28,-87,81,-126v-17,-11,-25,-37,-25,-68v0,-17,32,-78,32,-78v-43,-18,-81,-57,-81,-151v0,-122,71,-170,180,-170v52,0,105,13,105,13r144,-3r0,53r-97,0v21,21,34,48,34,107v0,147,-97,179,-240,163v0,0,-20,49,-20,62v0,43,8,49,127,49v136,0,188,24,188,145v0,113,-75,160,-219,160xm286,-13v-38,0,-113,-4,-113,-4v-48,34,-63,53,-63,96v0,78,27,106,150,106v109,0,156,-30,156,-104v0,-85,-36,-94,-130,-94xm234,-225v91,0,128,-28,128,-115v0,-96,-33,-117,-126,-117v-79,0,-119,28,-119,117v0,78,27,115,117,115xm226,-623r0,-75r60,0r0,75r-60,0","w":512},"\u0123":{"d":"259,239v-161,0,-209,-37,-209,-156v0,-61,28,-87,81,-126v-17,-11,-25,-37,-25,-68v0,-17,32,-78,32,-78v-43,-18,-81,-57,-81,-151v0,-122,71,-170,180,-170v52,0,105,13,105,13r144,-3r0,53r-97,0v21,21,34,48,34,107v0,147,-97,179,-240,163v0,0,-20,49,-20,62v0,43,8,49,127,49v136,0,188,24,188,145v0,113,-75,160,-219,160xm286,-13v-38,0,-113,-4,-113,-4v-48,34,-63,53,-63,96v0,78,27,106,150,106v109,0,156,-30,156,-104v0,-85,-36,-94,-130,-94xm234,-225v91,0,128,-28,128,-115v0,-96,-33,-117,-126,-117v-79,0,-119,28,-119,117v0,78,27,115,117,115xm295,-791r-40,201r-60,0r48,-201r52,0","w":512},"\u0125":{"d":"152,0r-60,0r0,-737r60,0r0,263v0,0,85,-35,162,-35v137,0,167,63,167,249r0,260r-60,0r0,-259v0,-146,-16,-195,-114,-195v-75,0,-155,33,-155,33r0,421xm134,-780r124,-142r48,0r124,142r-68,0r-79,-90r-81,90r-68,0","w":565},"\u0127":{"d":"27,-592r0,-53r65,0r0,-92r60,0r0,92r157,0r0,53r-157,0r0,118v0,0,85,-35,162,-35v137,0,167,63,167,249r0,260r-60,0r0,-259v0,-146,-16,-195,-114,-195v-75,0,-155,33,-155,33r0,421r-60,0r0,-592r-65,0","w":565},"\u0129":{"d":"101,0r0,-500r60,0r0,500r-60,0xm274,-714r14,47v0,0,-45,48,-82,48v-43,0,-115,-51,-147,-51v-23,0,-73,44,-73,44r-14,-47v0,0,50,-51,88,-51v45,0,116,50,147,50v20,0,67,-40,67,-40","w":263},"\u012b":{"d":"101,0r0,-500r60,0r0,500r-60,0xm-10,-637r0,-53r282,0r0,53r-282,0","w":263},"\u012d":{"d":"101,0r0,-500r60,0r0,500r-60,0xm-20,-729r61,0v1,49,34,83,91,83v57,0,90,-34,91,-83r61,0v-3,79,-59,137,-152,137v-94,0,-150,-58,-152,-137","w":263},"\u012f":{"d":"-91,0r0,-500r60,0r0,500r-60,0xm-91,-625r0,-75r60,0r0,75r-60,0xm162,144r6,51v0,0,-41,9,-73,9v-50,0,-87,-32,-87,-85v0,-54,82,-126,82,-126r54,6v0,0,-74,74,-74,107v0,24,16,44,41,44v16,0,51,-6,51,-6","w":228},"\u0135":{"d":"98,-6r0,-494r60,0r0,495v0,119,-32,164,-164,231r-25,-51v106,-60,129,-88,129,-181xm-22,-595r124,-142r48,0r124,142r-68,0r-79,-90r-81,90r-68,0","w":242},"\u0137":{"d":"152,0r-60,0r0,-722r60,0r0,426r83,-3r162,-201r68,0r-176,229r178,271r-69,0r-162,-240r-84,3r0,237xm189,278r40,-200r60,0r-49,200r-51,0","w":492},"\u013a":{"d":"88,0r0,-722r60,0r0,722r-60,0xm3,-850r208,-95r23,55r-210,89","w":236},"\u013e":{"d":"88,0r0,-722r60,0r0,722r-60,0xm336,-697r0,227r-58,0r0,-227r58,0","w":418},"\u013c":{"d":"88,0r0,-722r60,0r0,722r-60,0xm46,278r40,-200r60,0r-49,200r-51,0","w":236},"\u0144":{"d":"152,0r-60,0r0,-500r60,0r0,36v0,0,86,-45,162,-45v137,0,167,63,167,249r0,260r-59,0r0,-259v0,-146,-16,-195,-115,-195v-75,0,-155,42,-155,42r0,412xm169,-648r208,-95r23,55r-210,89","w":570},"\u0148":{"d":"152,0r-60,0r0,-500r60,0r0,36v0,0,86,-45,162,-45v137,0,167,63,167,249r0,260r-59,0r0,-259v0,-146,-16,-195,-115,-195v-75,0,-155,42,-155,42r0,412xm260,-595r-123,-142r67,0r81,89r80,-89r68,0r-124,142r-49,0","w":570},"\u0146":{"d":"152,0r-60,0r0,-500r60,0r0,36v0,0,86,-45,162,